{"learner":{"attributes":{"scikit_learn":"{\"_estimator_type\": \"regressor\"}"},"feature_names":["f0","f1","f2","f3","f4","f5","f6","f7","f8","f9","f10","f11"],"feature_types":["float","float","float","float","float","float","float","float","float","float","float","float"],"gradient_booster":{"model":{"gbtree_model_param":{"num_parallel_tree":"1","num_trees":"100"},"iteration_indptr":[0,1,2,3,4,5,6,7,8,9,10,11,12,13,14,15,16,17,18,19,20,21,22,23,24,25,26,27,28,29,30,31,32,33,34,35,36,37,38,39,40,41,42,43,44,45,46,47,48,49,50,51,52,53,54,55,56,57,58,59,60,61,62,63,64,65,66,67,68,69,70,71,72,73,74,75,76,77,78,79,80,81,82,83,84,85,86,87,88,89,90,91,92,93,94,95,96,97,98,99,100],"tree_info":[0,0,0,0,0,0,0,0,0,0,0,0,0,0,0,0,0,0,0,0,0,0,0,0,0,0,0,0,0,0,0,0,0,0,0,0,0,0,0,0,0,0,0,0,0,0,0,0,0,0,0,0,0,0,0,0,0,0,0,0,0,0,0,0,0,0,0,0,0,0,0,0,0,0,0,0,0,0,0,0,0,0,0,0,0,0,0,0,0,0,0,0,0,0,0,0,0,0,0,0],"trees":[{"base_weights":[-8.651333E-8,9.372958E1,-6.2572525E1,1.0826889E2,5.604864E1,-9.599778E1,8.671776E1,1.20916336E2,9.424494E1,6.969735E1,3.7164085E1,4.9476463E1,-1.3992664E2,4.644652E1,1.0254165E2,3.910562E1,3.430579E1,3.0367075E1,2.668171E1,2.2843483E1,1.9004349E1,1.3703108E1,2.4763002E1,8.177681E1,-1.6664453E2,-2.1666416E1,-1.5610658E2,-8.838434E-1,3.471164E1,1.1081339E2,6.804767E1,9.123216E0,5.9680977E0,9.6173195E1,4.2290257E1,2.0774979E1,-1.8817422E2,1.3935426E0,-5.1606045E1,-1.891227E2,-6.713395E1,-3.648253E1,2.0124544E1,1.1122735E2,1.0498581E-1,4.8564194E1,2.9071127E1,2.9527525E1,1.6364975E1,1.5591873E1,-7.5240264E0,-3.261821E1,-6.0738155E1,1.5276387E0,-4.35717E0,-1.1235322E1,-2.1396204E1,-5.7986538E1,-3.2309452E1,-4.001626E1,-1.5866697E-1,-6.6975274E0,1.4383544E1,3.254986E0,3.346956E1,1.0297914E1,2.9086643E1],"categories":[],"categories_nodes":[],"categories_segments":[],"categories_sizes":[],"default_left":[0,0,0,0,0,0,0,0,0,0,0,0,0,0,0,0,0,0,0,0,0,0,0,0,0,0,0,0,0,0,0,0,0,0,0,0,0,0,0,0,0,0,0,0,0,0,0,0,0,0,0,0,0,0,0,0,0,0,0,0,0,0,0,0,0,0,0],"id":0,"left_children":[1,3,5,7,9,11,13,15,17,19,21,23,25,27,29,-1,-1,-1,-1,-1,-1,-1,31,33,35,37,39,41,-1,43,45,-1,-1,47,49,-1,51,53,55,57,59,-1,61,63,-1,65,-1,-1,-1,-1,-1,-1,-1,-1,-1,-1,-1,-1,-1,-1,-1,-1,-1,-1,-1,-1,-1],"loss_changes":[2.4831972E7,9.22546E5,1.2678103E7,2.05347E5,1.19583125E5,1.3267244E7,2.9155775E5,2.467E4,1.26215E4,6.39375E3,2.0088406E4,3.3783655E6,3.04665E6,4.360831E5,8.74725E4,0E0,0E0,0E0,0E0,0E0,0E0,0E0,1.7050781E3,2.3468725E5,3.3299125E5,1.3332039E5,4.105724E6,2.0534561E5,0E0,1.21705E4,3.296247E4,0E0,0E0,2.340625E4,7.566836E4,0E0,4.3817125E4,6.549881E3,2.0770016E4,3.2584E5,1.6812154E6,0E0,8.255761E4,7.81E3,0E0,2.560929E4,0E0,0E0,0E0,0E0,0E0,0E0,0E0,0E0,0E0,0E0,0E0,0E0,0E0,0E0,0E0,0E0,0E0,0E0,0E0,0E0,0E0],"parents":[2147483647,0,0,1,1,2,2,3,3,4,4,5,5,6,6,7,7,8,8,9,9,10,10,11,11,12,12,13,13,14,14,22,22,23,23,24,24,25,25,26,26,27,27,29,29,30,30,33,33,34,34,36,36,37,37,38,38,39,39,40,40,42,42,43,43,45,45],"right_children":[2,4,6,8,10,12,14,16,18,20,22,24,26,28,30,-1,-1,-1,-1,-1,-1,-1,32,34,36,38,40,42,-1,44,46,-1,-1,48,50,-1,52,54,56,58,60,-1,62,64,-1,66,-1,-1,-1,-1,-1,-1,-1,-1,-1,-1,-1,-1,-1,-1,-1,-1,-1,-1,-1,-1,-1],"split_conditions":[-1.1102692E3,-1.4090164E3,2.2459914E2,-1.524948E3,-1.2797079E3,-2.2426994E-1,4.0771884E2,-1.5918317E3,-1.471441E3,-1.3555094E3,-1.1994474E3,-8.471934E1,-6.2870667E2,1.1522042E0,1.7940875E0,3.910562E1,3.430579E1,3.0367075E1,2.668171E1,2.2843483E1,1.9004349E1,1.3703108E1,-1.1459404E3,-1.5606194E2,-3.4653628E0,-9.3191266E2,7.72183E1,7.848546E-1,3.471164E1,2.1639657E0,9.2537427E2,9.123216E0,5.9680977E0,1.7535714E0,-1.2078719E2,2.0774979E1,-4.4589123E1,-1.0077142E3,-7.981453E2,2.151349E0,1.4603796E0,-3.648253E1,3.1938785E2,-7.165589E-1,1.0498581E-1,7.848546E-1,2.9071127E1,2.9527525E1,1.6364975E1,1.5591873E1,-7.5240264E0,-3.261821E1,-6.0738155E1,1.5276387E0,-4.35717E0,-1.1235322E1,-2.1396204E1,-5.7986538E1,-3.2309452E1,-4.001626E1,-1.5866697E-1,-6.6975274E0,1.4383544E1,3.254986E0,3.346956E1,1.0297914E1,2.9086643E1],"split_indices":[11,11,11,11,11,10,11,11,11,11,11,11,11,10,5,0,0,0,0,0,0,0,11,11,10,11,11,10,0,6,11,0,0,7,11,0,11,11,11,10,10,0,11,6,0,10,0,0,0,0,0,0,0,0,0,0,0,0,0,0,0,0,0,0,0,0,0],"split_type":[0,0,0,0,0,0,0,0,0,0,0,0,0,0,0,0,0,0,0,0,0,0,0,0,0,0,0,0,0,0,0,0,0,0,0,0,0,0,0,0,0,0,0,0,0,0,0,0,0,0,0,0,0,0,0,0,0,0,0,0,0,0,0,0,0,0,0],"sum_hessian":[4.232E3,1.694E3,2.538E3,1.221E3,4.73E2,2.074E3,4.64E2,6.38E2,5.83E2,2.73E2,2E2,4.81E2,1.593E3,1.32E2,3.32E2,2.54E2,3.84E2,2.44E2,3.39E2,1.3E2,1.43E2,1.17E2,8.3E1,4.19E2,6.2E1,1.92E2,1.401E3,7.9E1,5.3E1,2.66E2,6.6E1,3.6E1,4.7E1,3.06E2,1.13E2,5E0,5.7E1,1.09E2,8.3E1,1.021E3,3.8E2,1.1E1,6.8E1,2.65E2,1E0,4.1E1,2.5E1,2.89E2,1.7E1,9.9E1,1.4E1,1E1,4.7E1,8.9E1,2E1,5E1,3.3E1,9.7E2,5.1E1,1.9E2,1.9E2,2.7E1,4.1E1,1E0,2.64E2,3.3E1,8E0],"tree_param":{"num_deleted":"0","num_feature":"12","num_nodes":"67","size_leaf_vector":"1"}},{"base_weights":[3.017906E-2,6.490222E1,-4.4396725E1,7.534897E1,3.6355015E1,-7.03393E1,5.6633514E1,8.656902E1,6.682928E1,4.58789E1,2.1532248E1,3.45949E1,-1.0359009E2,2.8032333E1,7.209532E1,2.7888796E1,2.4751165E1,2.1549997E1,1.8426983E1,1.4650437E1,1.131079E1,2.8338055E1,1.3863044E1,5.7372253E1,-1.1780325E2,-2.8078548E1,-1.15884026E2,-1.0737903E1,8.2247894E1,5.5020844E1,8.248807E1,9.226642E0,7.204892E0,4.8670735E0,3.1874447E0,6.442391E1,1.3133704E1,5.193744E1,-1.3333154E2,-7.664468E0,-5.1714455E1,-1.3332323E2,-4.1687515E1,-3.1623346E1,3.5034473E1,1.3219355E1,8.5482956E1,2.601018E0,6.6977745E1,6.654855E1,2.8034447E1,2.2974445E1,1.5829306E1,8.704986E0,-2.4424214E0,4.638739E0,1.6841984E1,-1.2883653E1,-4.176946E1,1.72749E-1,-5.2411213E0,-1.0822808E1,-1.7212084E1,-4.3381042E1,-2.9770721E1,-2.4203512E1,9.30237E0,-2.8326601E1,-6.1007147E0,-1.4563514E1,1.2532567E1,2.3886805E1,3.2743248E1,-7.0608234E0,5.632242E0,1.6469807E1,2.6048742E1,1.6429125E1,2.1537098E1],"categories":[],"categories_nodes":[],"categories_segments":[],"categories_sizes":[],"default_left":[0,0,0,0,0,0,0,0,0,0,0,0,0,0,0,0,0,0,0,0,0,0,0,0,0,0,0,0,0,0,0,0,0,0,0,0,0,0,0,0,0,0,0,0,0,0,0,0,0,0,0,0,0,0,0,0,0,0,0,0,0,0,0,0,0,0,0,0,0,0,0,0,0,0,0,0,0,0,0],"id":1,"left_children":[1,3,5,7,9,11,13,15,17,19,21,23,25,27,29,-1,-1,-1,-1,-1,-1,31,33,35,37,39,41,43,45,47,49,-1,-1,-1,-1,51,53,55,57,59,61,63,65,67,69,-1,71,73,75,77,-1,-1,-1,-1,-1,-1,-1,-1,-1,-1,-1,-1,-1,-1,-1,-1,-1,-1,-1,-1,-1,-1,-1,-1,-1,-1,-1,-1,-1],"loss_changes":[1.2202658E7,5.10506E5,6.590519E6,1.145645E5,6.4373938E4,6.981871E6,2.2528325E5,6.3655E3,1.506525E4,4.9500625E3,9.158859E3,1.67989E6,1.406886E6,3.834381E5,5.45525E4,0E0,0E0,0E0,0E0,0E0,0E0,2.643203E2,5.0029297E2,1.30175E5,1.7297925E5,1.0285975E5,1.68431E6,1.0339738E5,5.6211562E3,8.068022E4,2.9594375E4,0E0,0E0,0E0,0E0,4.7273375E4,2.0172969E4,5.165625E1,2.4950625E4,9.383305E3,6.69175E3,3.92084E5,7.1111575E5,5.0534617E4,2.1183195E4,0E0,8.7725E2,1.100983E4,2.0409312E4,1.4427812E3,0E0,0E0,0E0,0E0,0E0,0E0,0E0,0E0,0E0,0E0,0E0,0E0,0E0,0E0,0E0,0E0,0E0,0E0,0E0,0E0,0E0,0E0,0E0,0E0,0E0,0E0,0E0,0E0,0E0],"parents":[2147483647,0,0,1,1,2,2,3,3,4,4,5,5,6,6,7,7,8,8,9,9,10,10,11,11,12,12,13,13,14,14,21,21,22,22,23,23,24,24,25,25,26,26,27,27,28,28,29,29,30,30,35,35,36,36,37,37,38,38,39,39,40,40,41,41,42,42,43,43,44,44,46,46,47,47,48,48,49,49],"right_children":[2,4,6,8,10,12,14,16,18,20,22,24,26,28,30,-1,-1,-1,-1,-1,-1,32,34,36,38,40,42,44,46,48,50,-1,-1,-1,-1,52,54,56,58,60,62,64,66,68,70,-1,72,74,76,78,-1,-1,-1,-1,-1,-1,-1,-1,-1,-1,-1,-1,-1,-1,-1,-1,-1,-1,-1,-1,-1,-1,-1,-1,-1,-1,-1,-1,-1],"split_conditions":[-1.0790568E3,-1.3911807E3,1.7935078E2,-1.5427837E3,-1.2574133E3,-2.2426994E-1,4.0771884E2,-1.6096674E3,-1.4625232E3,-1.324297E3,-1.172694E3,-8.471934E1,-4.5035016E2,1.1522042E0,7.848546E-1,2.7888796E1,2.4751165E1,2.1549997E1,1.8426983E1,1.4650437E1,1.131079E1,-1.221742E3,-1.1236459E3,-1.4626971E2,-3.4653628E0,-8.5611115E2,9.019175E1,3.4910925E2,1.4928018E-1,8.423278E2,4.4466837E2,9.226642E0,7.204892E0,4.8670735E0,3.1874447E0,-1.6716539E2,-1.340381E2,-1.4752876E0,-6.2424774E1,-1.0077142E3,-7.2680273E2,5.0671757E1,1.7235235E0,7.848546E-1,7.848546E-1,1.3219355E1,1.7235235E0,7.622474E2,1.0202844E3,4.2683066E2,2.8034447E1,2.2974445E1,1.5829306E1,8.704986E0,-2.4424214E0,4.638739E0,1.6841984E1,-1.2883653E1,-4.176946E1,1.72749E-1,-5.2411213E0,-1.0822808E1,-1.7212084E1,-4.3381042E1,-2.9770721E1,-2.4203512E1,9.30237E0,-2.8326601E1,-6.1007147E0,-1.4563514E1,1.2532567E1,2.3886805E1,3.2743248E1,-7.0608234E0,5.632242E0,1.6469807E1,2.6048742E1,1.6429125E1,2.1537098E1],"split_indices":[11,11,11,11,11,10,11,11,11,11,11,11,11,10,10,0,0,0,0,0,0,11,11,11,10,11,11,11,6,11,11,0,0,0,0,11,11,9,11,11,11,11,10,10,10,0,10,11,11,11,0,0,0,0,0,0,0,0,0,0,0,0,0,0,0,0,0,0,0,0,0,0,0,0,0,0,0,0,0],"split_type":[0,0,0,0,0,0,0,0,0,0,0,0,0,0,0,0,0,0,0,0,0,0,0,0,0,0,0,0,0,0,0,0,0,0,0,0,0,0,0,0,0,0,0,0,0,0,0,0,0,0,0,0,0,0,0,0,0,0,0,0,0,0,0,0,0,0,0,0,0,0,0,0,0,0,0,0,0,0,0],"sum_hessian":[4.232E3,1.72E3,2.512E3,1.258E3,4.62E2,1.999E3,5.13E2,5.39E2,7.19E2,2.8E2,1.82E2,4.81E2,1.518E3,1.81E2,3.32E2,2.01E2,3.38E2,3.67E2,3.52E2,2.02E2,7.8E1,9.5E1,8.7E1,4.19E2,6.2E1,2.13E2,1.305E3,1.06E2,7.5E1,1.28E2,2.04E2,5.7E1,3.8E1,4.8E1,3.9E1,3.61E2,5.8E1,5E0,5.7E1,1.15E2,9.8E1,1.056E3,2.49E2,7.3E1,3.3E1,7E0,6.8E1,2.4E1,1.04E2,8.6E1,1.18E2,1.74E2,1.87E2,3.3E1,2.5E1,1E0,4E0,4E0,5.3E1,6.3E1,5.2E1,2.8E1,7E1,7.91E2,2.65E2,1.62E2,8.7E1,1E1,6.3E1,2E0,3.1E1,5.8E1,1E1,9E0,1.5E1,6.7E1,3.7E1,3E1,5.6E1],"tree_param":{"num_deleted":"0","num_feature":"12","num_nodes":"79","size_leaf_vector":"1"}},{"base_weights":[6.2297683E-2,4.5514687E1,-3.1065289E1,5.3915672E1,2.781493E1,-5.022392E1,3.788552E1,6.2875237E1,4.904665E1,3.4579933E1,1.6153126E1,2.4241096E1,-7.434364E1,1.6283258E1,5.0094585E1,2.0446638E1,1.8184183E1,1.5994305E1,4.5787487E1,1.13799515E1,8.848869E0,2.0718706E1,9.795658E0,3.8125183E1,-1.0208847E2,-2.231721E1,-8.434688E1,-2.130072E1,5.682962E1,3.597257E1,5.652976E1,1.4136324E1,1.2584108E1,6.832362E0,5.318671E0,3.4367473E0,2.2551188E0,4.4063404E1,-5.5062037E0,-1.8320526E1,-3.2280727E1,-5.4088187E0,-3.7706543E1,-9.638595E1,-1.6507296E1,-7.899696E1,-1.068903E1,5.0851913E1,2.4485128E1,2.4984245E1,1.6107473E1,1.2917506E1,6.113342E1,1.5652923E1,9.837973E0,4.1848636E0,-8.878939E0,-3.1095022E-1,-4.912336E0,-7.687924E0,-1.2268955E1,-3.2020435E1,-2.3970095E1,-2.0537413E1,4.1804605E0,-2.7127275E1,-1.5416097E1,-8.962584E0,4.7541375E0,8.97497E0,1.7632399E1,4.8973E0,1.3875242E1,1.4599786E1,1.9237047E1],"categories":[],"categories_nodes":[],"categories_segments":[],"categories_sizes":[],"default_left":[0,0,0,0,0,0,0,0,0,0,0,0,0,0,0,0,0,0,0,0,0,0,0,0,0,0,0,0,0,0,0,0,0,0,0,0,0,0,0,0,0,0,0,0,0,0,0,0,0,0,0,0,0,0,0,0,0,0,0,0,0,0,0,0,0,0,0,0,0,0,0,0,0,0,0],"id":2,"left_children":[1,3,5,7,9,11,13,15,17,19,21,23,25,27,29,-1,-1,-1,31,-1,-1,33,35,37,39,41,43,45,47,49,51,-1,-1,-1,-1,-1,-1,53,55,-1,-1,57,59,61,63,65,67,69,-1,71,-1,-1,73,-1,-1,-1,-1,-1,-1,-1,-1,-1,-1,-1,-1,-1,-1,-1,-1,-1,-1,-1,-1,-1,-1],"loss_changes":[5.99036E6,2.5440525E5,3.3215835E6,4.778225E4,4.330547E4,3.5346835E6,1.4345194E5,7.28375E2,8.129875E3,4.8645312E3,5.7763047E3,8.493061E5,7.714805E5,3.0446538E5,2.9682875E4,0E0,0E0,0E0,2.666875E2,0E0,0E0,3.2767188E2,2.4677637E2,1.1294794E5,4.2856562E3,6.2506375E4,1.016049E6,6.2830086E4,1.0074156E4,2.0465203E4,1.2127875E4,0E0,0E0,0E0,0E0,0E0,0E0,3.33085E4,2.5253639E4,0E0,0E0,5.544676E3,3.8074062E3,1.71974E5,2.9985612E5,4.0148438E2,4.5785934E4,1.1510891E4,0E0,1.2320809E4,0E0,0E0,3.403125E3,0E0,0E0,0E0,0E0,0E0,0E0,0E0,0E0,0E0,0E0,0E0,0E0,0E0,0E0,0E0,0E0,0E0,0E0,0E0,0E0,0E0,0E0],"parents":[2147483647,0,0,1,1,2,2,3,3,4,4,5,5,6,6,7,7,8,8,9,9,10,10,11,11,12,12,13,13,14,14,18,18,21,21,22,22,23,23,24,24,25,25,26,26,27,27,28,28,29,29,30,30,37,37,38,38,41,41,42,42,43,43,44,44,45,45,46,46,47,47,49,49,52,52],"right_children":[2,4,6,8,10,12,14,16,18,20,22,24,26,28,30,-1,-1,-1,32,-1,-1,34,36,38,40,42,44,46,48,50,52,-1,-1,-1,-1,-1,-1,54,56,-1,-1,58,60,62,64,66,68,70,-1,72,-1,-1,74,-1,-1,-1,-1,-1,-1,-1,-1,-1,-1,-1,-1,-1,-1,-1,-1,-1,-1,-1,-1,-1,-1],"split_conditions":[-1.0790568E3,-1.4268519E3,1.6023232E2,-1.5561604E3,-1.266331E3,-2.2426994E-1,3.745917E2,-1.6319619E3,-1.4981946E3,-1.3421326E3,-1.172694E3,-4.4589123E1,-3.522541E2,1.1522042E0,1.4928018E-1,2.0446638E1,1.8184183E1,1.5994305E1,-1.4446876E3,1.13799515E1,8.848869E0,-1.2395776E3,-1.1236459E3,-1.4168286E2,-2.4463228E1,-8.5611115E2,1.9514829E0,7.848546E-1,1.7235235E0,9.609656E2,4.3829776E2,1.4136324E1,1.2584108E1,6.832362E0,5.318671E0,3.4367473E0,2.2551188E0,-1.6497975E2,1.21798165E-1,-1.8320526E1,-3.2280727E1,-9.3191266E2,-7.2680273E2,3.9969604E1,6.115783E1,2.5335878E2,2.7775845E2,2.076818E2,2.4485128E1,7.848546E-1,1.6107473E1,1.2917506E1,7.848546E-1,1.5652923E1,9.837973E0,4.1848636E0,-8.878939E0,-3.1095022E-1,-4.912336E0,-7.687924E0,-1.2268955E1,-3.2020435E1,-2.3970095E1,-2.0537413E1,4.1804605E0,-2.7127275E1,-1.5416097E1,-8.962584E0,4.7541375E0,8.97497E0,1.7632399E1,4.8973E0,1.3875242E1,1.4599786E1,1.9237047E1],"split_indices":[11,11,11,11,11,10,11,11,11,11,11,11,11,10,6,0,0,0,11,0,0,11,11,11,11,11,10,10,10,11,11,0,0,0,0,0,0,11,9,0,0,11,11,11,11,11,11,11,0,10,0,0,10,0,0,0,0,0,0,0,0,0,0,0,0,0,0,0,0,0,0,0,0,0,0],"split_type":[0,0,0,0,0,0,0,0,0,0,0,0,0,0,0,0,0,0,0,0,0,0,0,0,0,0,0,0,0,0,0,0,0,0,0,0,0,0,0,0,0,0,0,0,0,0,0,0,0,0,0,0,0,0,0,0,0,0,0,0,0,0,0,0,0,0,0,0,0,0,0,0,0,0,0],"sum_hessian":[4.232E3,1.72E3,2.512E3,1.165E3,5.55E2,1.966E3,5.46E2,4.06E2,7.59E2,3.5E2,2.05E2,4.81E2,1.485E3,1.98E2,3.48E2,1.13E2,2.93E2,3.22E2,4.37E2,2.07E2,1.43E2,1.18E2,8.7E1,4.34E2,4.7E1,2.4E2,1.245E3,1.03E2,9.5E1,1.11E2,2.37E2,3.16E2,1.21E2,6.6E1,5.2E1,4.8E1,3.9E1,3.82E2,5.2E1,7E0,4E1,1.15E2,1.25E2,1.057E3,1.88E2,1.5E1,8.8E1,7.9E1,1.6E1,7E1,4.1E1,6.3E1,1.74E2,2.2E2,1.62E2,2.9E1,2.3E1,8.3E1,3.2E1,2.8E1,9.7E1,6.46E2,4.11E2,6.9E1,1.19E2,9E0,6E0,5.1E1,3.7E1,2.3E1,5.6E1,5.1E1,1.9E1,3.7E1,1.37E2],"tree_param":{"num_deleted":"0","num_feature":"12","num_nodes":"75","size_leaf_vector":"1"}},{"base_weights":[6.2049538E-2,2.2121397E1,-3.1494757E1,3.5147076E1,3.1951222E0,-6.4835304E1,1.6713184E1,4.1419144E1,2.940494E1,3.3210457E1,-1.2263957E1,-6.811959E1,1.8153685E1,-8.468023E0,3.162722E1,4.448315E1,1.1358368E1,3.226221E1,2.5047451E1,5.4647137E1,2.7378021E1,8.47889E0,-3.3659092E1,-3.1531088E1,-7.228213E1,-2.9243093E1,3.0916727E1,-4.3678047E1,1.9899954E1,1.9761095E1,3.652142E1,1.4666427E1,1.28962965E1,1.0026177E1,9.000594E0,8.196959E0,6.63296E0,1.8444418E1,1.3499872E1,3.1831396E1,2.1037807E1,1.5078618E1,1.712821E0,-2.0277584E1,-5.4455894E1,1.0008279E0,-7.1864136E1,-8.1466095E1,-5.201605E1,-4.930434E0,-1.4814438E1,1.7847372E1,2.0368164E1,-2.596521E1,-3.6177917E1,-3.4803514E0,3.5438362E1,-1.3442733E1,2.4809006E1,2.0186481E0,3.8234123E1,1.11647625E1,9.118927E0,6.688264E0,4.6718187E0,4.9686947E0,3.4220417E0,1.8183377E0,-9.764357E-1,-7.822058E0,6.054673E0,-1.359991E1,-1.8125977E1,1.4153098E1,-1.5703322E0,-1.3511389E1,-2.2657282E1,-2.5751411E1,-2.2658464E1,-2.4463564E1,-1.2001309E1,3.202379E0,7.094182E0,-1.5680829E1,-8.025478E0,-5.658312E0,1.607328E1,8.577639E0,2.309571E1,4.2499123E0,1.3151186E1,-9.35862E0,5.985566E0,9.293971E0,1.2728876E1],"categories":[],"categories_nodes":[],"categories_segments":[],"categories_sizes":[],"default_left":[0,0,0,0,0,0,0,0,0,0,0,0,0,0,0,0,0,0,0,0,0,0,0,0,0,0,0,0,0,0,0,0,0,0,0,0,0,0,0,0,0,0,0,0,0,0,0,0,0,0,0,0,0,0,0,0,0,0,0,0,0,0,0,0,0,0,0,0,0,0,0,0,0,0,0,0,0,0,0,0,0,0,0,0,0,0,0,0,0,0,0,0,0,0,0],"id":3,"left_children":[1,3,5,7,9,11,13,15,17,19,21,23,25,27,29,31,-1,33,35,37,39,41,43,45,47,49,51,53,55,57,59,-1,-1,-1,-1,-1,-1,-1,-1,61,63,65,67,69,71,73,75,77,79,-1,-1,81,-1,-1,83,85,87,-1,89,91,93,-1,-1,-1,-1,-1,-1,-1,-1,-1,-1,-1,-1,-1,-1,-1,-1,-1,-1,-1,-1,-1,-1,-1,-1,-1,-1,-1,-1,-1,-1,-1,-1,-1,-1],"loss_changes":[2.9473838E6,6.142344E5,2.800964E6,5.1940375E4,4.7230494E5,2.81973E5,2.6803744E5,5.979375E3,8.828625E3,4.1763594E4,2.985163E5,1.486515E5,2.5101182E4,2.6655984E5,2.5295969E4,3.49E2,0E0,2.1215625E2,1.475E3,2.0465312E3,7.0668438E3,1.524591E4,9.1010625E4,1.3521938E5,1.612255E5,1.5098735E3,1.4252828E4,3.5133266E4,5.3890664E4,4.44623E4,1.8596188E4,0E0,0E0,0E0,0E0,0E0,0E0,0E0,0E0,9.7296875E1,4.493125E2,7.535586E2,3.6918406E3,4.813029E4,4.2797188E3,1.694635E4,1.1151562E3,9.3525E3,9.605244E4,0E0,0E0,7.8760986E2,0E0,0E0,1.4225141E4,5.3665965E4,2.3114242E4,0E0,2.4490344E4,1.0152574E4,7.8464062E3,0E0,0E0,0E0,0E0,0E0,0E0,0E0,0E0,0E0,0E0,0E0,0E0,0E0,0E0,0E0,0E0,0E0,0E0,0E0,0E0,0E0,0E0,0E0,0E0,0E0,0E0,0E0,0E0,0E0,0E0,0E0,0E0,0E0,0E0],"parents":[2147483647,0,0,1,1,2,2,3,3,4,4,5,5,6,6,7,7,8,8,9,9,10,10,11,11,12,12,13,13,14,14,15,15,17,17,18,18,19,19,20,20,21,21,22,22,23,23,24,24,25,25,26,26,27,27,28,28,29,29,30,30,39,39,40,40,41,41,42,42,43,43,44,44,45,45,46,46,47,47,48,48,51,51,54,54,55,55,56,56,58,58,59,59,60,60],"right_children":[2,4,6,8,10,12,14,16,18,20,22,24,26,28,30,32,-1,34,36,38,40,42,44,46,48,50,52,54,56,58,60,-1,-1,-1,-1,-1,-1,-1,-1,62,64,66,68,70,72,74,76,78,80,-1,-1,82,-1,-1,84,86,88,-1,90,92,94,-1,-1,-1,-1,-1,-1,-1,-1,-1,-1,-1,-1,-1,-1,-1,-1,-1,-1,-1,-1,-1,-1,-1,-1,-1,-1,-1,-1,-1,-1,-1,-1,-1,-1],"split_conditions":[-1.4321182E2,-1.3064613E3,1.0346491E2,-1.5071124E3,-9.5583814E-1,2.6289105E0,2.4377223E2,-1.5739961E3,-1.4268519E3,-1.7531981E2,-8.962414E2,-9.5583814E-1,5.35131E1,1.1522042E0,4.153636E2,-1.6408798E3,1.1358368E1,-1.4536055E3,-1.3688861E3,-1.8143561E2,-1.6104959E2,-1.1459404E3,-2.7645258E2,-4.4589123E1,1.1522042E0,-8.789163E-2,3.1740294E0,7.848546E-1,1.2231566E2,7.848546E-1,-7.165589E-1,1.4666427E1,1.28962965E1,1.0026177E1,9.000594E0,8.196959E0,6.63296E0,1.8444418E1,1.3499872E1,-1.722619E2,-1.4932762E2,-1.221742E3,-1.0567622E3,1.4913684E0,-2.1402779E2,-1.9621286E0,-2.4463228E1,2.803067E1,2.803067E1,-4.930434E0,-1.4814438E1,2.875513E0,2.0368164E1,-2.596521E1,1.3108054E2,2.6289105E0,2.151349E0,-1.3442733E1,1.1522042E0,7.622474E2,7.848546E-1,1.11647625E1,9.118927E0,6.688264E0,4.6718187E0,4.9686947E0,3.4220417E0,1.8183377E0,-9.764357E-1,-7.822058E0,6.054673E0,-1.359991E1,-1.8125977E1,1.4153098E1,-1.5703322E0,-1.3511389E1,-2.2657282E1,-2.5751411E1,-2.2658464E1,-2.4463564E1,-1.2001309E1,3.202379E0,7.094182E0,-1.5680829E1,-8.025478E0,-5.658312E0,1.607328E1,8.577639E0,2.309571E1,4.2499123E0,1.3151186E1,-9.35862E0,5.985566E0,9.293971E0,1.2728876E1],"split_indices":[11,11,11,11,10,10,11,11,11,11,11,10,11,10,11,11,0,11,11,11,11,11,11,11,10,4,10,10,11,10,6,0,0,0,0,0,0,0,0,11,11,11,11,7,11,10,11,11,11,0,0,10,0,0,11,10,10,0,10,11,10,0,0,0,0,0,0,0,0,0,0,0,0,0,0,0,0,0,0,0,0,0,0,0,0,0,0,0,0,0,0,0,0,0,0],"split_type":[0,0,0,0,0,0,0,0,0,0,0,0,0,0,0,0,0,0,0,0,0,0,0,0,0,0,0,0,0,0,0,0,0,0,0,0,0,0,0,0,0,0,0,0,0,0,0,0,0,0,0,0,0,0,0,0,0,0,0,0,0,0,0,0,0,0,0,0,0,0,0,0,0,0,0,0,0,0,0,0,0,0,0,0,0,0,0,0,0,0,0,0,0,0,0],"sum_hessian":[4.232E3,2.491E3,1.741E3,1.475E3,1.016E3,1.029E3,7.12E2,7.02E2,7.73E2,3.45E2,6.71E2,9.9E2,3.9E1,2.65E2,4.47E2,3.71E2,3.31E2,4.63E2,3.1E2,7.2E1,2.73E2,3.41E2,3.3E2,1.02E2,8.88E2,8E0,3.1E1,1.18E2,1.47E2,1.32E2,3.15E2,8.6E1,2.85E2,2.97E2,1.66E2,1.7E2,1.4E2,3.9E1,3.3E1,1.58E2,1.15E2,1.72E2,1.69E2,2.02E2,1.28E2,5.7E1,4.5E1,6.09E2,2.79E2,6E0,2E0,2.4E1,7E0,1.6E1,1.02E2,5.9E1,8.8E1,9E0,1.23E2,1.5E1,3E2,2.8E1,1.3E2,9.1E1,2.4E1,1.2E2,5.2E1,9E1,7.9E1,1.77E2,2.5E1,5.4E1,7.4E1,6E0,5.1E1,7E0,3.8E1,3.43E2,2.66E2,7.9E1,2E2,1.2E1,1.2E1,3.6E1,6.6E1,4.7E1,1.2E1,7.7E1,1.1E1,8E1,4.3E1,5E0,1E1,1.13E2,1.87E2],"tree_param":{"num_deleted":"0","num_feature":"12","num_nodes":"95","size_leaf_vector":"1"}},{"base_weights":[5.04243E-2,1.55299635E1,-2.2093699E1,2.451138E1,2.0602784E0,-4.2829445E1,1.6166475E1,2.8449425E1,1.977519E1,2.34311E1,-9.266467E0,-4.6227535E1,1.854032E1,4.3639545E0,2.5081953E1,3.1089327E1,7.7696767E0,2.1258598E1,4.6655188E0,3.6989956E1,1.8733763E1,-9.9461263E-1,-3.6292168E1,-5.1835495E1,-3.3309628E1,-2.842326E1,2.8501501E1,-1.6746881E1,2.8504074E1,2.4879258E0,2.616008E1,1.0055733E1,8.905212E0,6.772992E0,5.917701E0,1.2667172E1,8.697606E0,6.4633536E0,1.4406144E1,6.788777E0,-1.1637011E1,-8.125799E0,-4.1327835E1,-2.230075E1,-5.648595E1,-5.3761223E1,-2.353058E1,-1.478431E1,-1.4441465E1,1.7420246E1,5.3196415E1,-4.793982E1,-1.1240336E1,2.34648E1,4.16892E1,-1.6760054E1,1.4510465E1,2.5062569E1,1.3192247E1,4.5757422E0,3.3263364E0,3.071369E0,8.5863364E-1,-4.5754933E0,6.589562E0,-1.101512E1,-1.3580918E1,5.503465E-1,-1.4998179E1,-1.6540081E1,-2.1064674E1,-1.8840115E1,-1.2644736E1,-8.851845E0,-4.9602513E0,-5.576579E0,-2.4706404E0,3.9115124E0,1.4764689E1,2.775815E0,1.6702303E1,-1.8140299E1,-1.0051491E1,-5.6709623E0,2.744687E0,3.941915E0,8.8722725E0,7.75176E0,1.5209923E1,9.68042E-1,-9.767071E0,8.738648E-1,7.106891E0,5.0272846E0,8.599351E0],"categories":[],"categories_nodes":[],"categories_segments":[],"categories_sizes":[],"default_left":[0,0,0,0,0,0,0,0,0,0,0,0,0,0,0,0,0,0,0,0,0,0,0,0,0,0,0,0,0,0,0,0,0,0,0,0,0,0,0,0,0,0,0,0,0,0,0,0,0,0,0,0,0,0,0,0,0,0,0,0,0,0,0,0,0,0,0,0,0,0,0,0,0,0,0,0,0,0,0,0,0,0,0,0,0,0,0,0,0,0,0,0,0,0,0],"id":4,"left_children":[1,3,5,7,9,11,13,15,17,19,21,23,25,27,29,31,-1,33,-1,35,37,39,41,43,45,47,49,51,53,55,57,-1,-1,-1,-1,-1,-1,-1,59,61,63,-1,65,67,69,71,73,-1,75,77,79,81,83,85,87,89,91,93,-1,-1,-1,-1,-1,-1,-1,-1,-1,-1,-1,-1,-1,-1,-1,-1,-1,-1,-1,-1,-1,-1,-1,-1,-1,-1,-1,-1,-1,-1,-1,-1,-1,-1,-1,-1,-1],"loss_changes":[1.4513342E6,3.0142375E5,1.382714E6,2.7321125E4,2.4179484E5,2.3650712E5,6.4393516E4,4.6755625E3,3.9422188E3,2.1343969E4,1.4594378E5,7.586E4,2.887887E4,1.3552616E5,8.436297E3,3.5375E2,0E0,5.689219E2,0E0,2.4595938E3,2.8400703E3,4.15788E4,5.973547E3,1.01066125E5,6.413403E4,2.4962295E3,1.2755836E4,2.3851816E4,7.2607656E3,4.177159E3,5.408422E3,0E0,0E0,0E0,0E0,0E0,0E0,0E0,1.2576953E2,3.8983242E3,2.6084455E4,0E0,1.00828125E2,6.8935016E4,8.0675E3,8.3741875E3,8.835203E3,0E0,5.2810913E1,4.3739473E3,1.1182031E3,1.7716211E3,1.923429E4,5.4148086E3,3.4029258E3,2.3151602E3,1.102013E3,8.9724375E3,0E0,0E0,0E0,0E0,0E0,0E0,0E0,0E0,0E0,0E0,0E0,0E0,0E0,0E0,0E0,0E0,0E0,0E0,0E0,0E0,0E0,0E0,0E0,0E0,0E0,0E0,0E0,0E0,0E0,0E0,0E0,0E0,0E0,0E0,0E0,0E0,0E0],"parents":[2147483647,0,0,1,1,2,2,3,3,4,4,5,5,6,6,7,7,8,8,9,9,10,10,11,11,12,12,13,13,14,14,15,15,17,17,19,19,20,20,21,21,22,22,23,23,24,24,25,25,26,26,27,27,28,28,29,29,30,30,38,38,39,39,40,40,42,42,43,43,44,44,45,45,46,46,48,48,49,49,50,50,51,51,52,52,53,53,54,54,55,55,56,56,57,57],"right_children":[2,4,6,8,10,12,14,16,18,20,22,24,26,28,30,32,-1,34,-1,36,38,40,42,44,46,48,50,52,54,56,58,-1,-1,-1,-1,-1,-1,-1,60,62,64,-1,66,68,70,72,74,-1,76,78,80,82,84,86,88,90,92,94,-1,-1,-1,-1,-1,-1,-1,-1,-1,-1,-1,-1,-1,-1,-1,-1,-1,-1,-1,-1,-1,-1,-1,-1,-1,-1,-1,-1,-1,-1,-1,-1,-1,-1,-1,-1,-1],"split_conditions":[-1.4321182E2,-1.2797079E3,1.26586105E2,-1.4937356E3,-9.5583814E-1,2.4865336E0,3.745917E2,-1.5695371E3,-1.3822628E3,-1.7389758E2,-3.0766495E2,1.1522042E0,5.35131E1,1.1522042E0,-7.165589E-1,-1.6185852E3,7.7696767E0,-1.4402286E3,4.6655188E0,-1.7786806E2,-1.6053993E2,-1.0077142E3,-2.54158E2,-9.5583814E-1,3.6291935E1,2.1660065E1,2.9832408E0,7.848546E-1,1.7235235E0,7.622474E2,1.0558757E3,1.0055733E1,8.905212E0,6.772992E0,5.917701E0,1.2667172E1,8.697606E0,6.4633536E0,-1.4932762E2,-1.1459404E3,1.4913684E0,-8.125799E0,-1.9162862E2,-4.9048035E1,1.1130866E0,1.9984802E1,1.7235235E0,-1.478431E1,3.9969604E1,1.1127722E2,6.625431E1,1.7935078E2,3.032409E2,2.076818E2,1.449396E2,1.7535714E0,8.423278E2,7.848546E-1,1.3192247E1,4.5757422E0,3.3263364E0,3.071369E0,8.5863364E-1,-4.5754933E0,6.589562E0,-1.101512E1,-1.3580918E1,5.503465E-1,-1.4998179E1,-1.6540081E1,-2.1064674E1,-1.8840115E1,-1.2644736E1,-8.851845E0,-4.9602513E0,-5.576579E0,-2.4706404E0,3.9115124E0,1.4764689E1,2.775815E0,1.6702303E1,-1.8140299E1,-1.0051491E1,-5.6709623E0,2.744687E0,3.941915E0,8.8722725E0,7.75176E0,1.5209923E1,9.68042E-1,-9.767071E0,8.738648E-1,7.106891E0,5.0272846E0,8.599351E0],"split_indices":[11,11,11,11,10,10,11,11,11,11,11,10,11,10,6,11,0,11,0,11,11,11,11,10,11,11,10,10,10,11,11,0,0,0,0,0,0,0,11,11,7,0,11,11,7,11,10,0,11,11,11,11,11,11,11,7,11,10,0,0,0,0,0,0,0,0,0,0,0,0,0,0,0,0,0,0,0,0,0,0,0,0,0,0,0,0,0,0,0,0,0,0,0,0,0],"split_type":[0,0,0,0,0,0,0,0,0,0,0,0,0,0,0,0,0,0,0,0,0,0,0,0,0,0,0,0,0,0,0,0,0,0,0,0,0,0,0,0,0,0,0,0,0,0,0,0,0,0,0,0,0,0,0,0,0,0,0,0,0,0,0,0,0,0,0,0,0,0,0,0,0,0,0,0,0,0,0,0,0,0,0,0,0,0,0,0,0,0,0,0,0,0,0],"sum_hessian":[4.232E3,2.491E3,1.741E3,1.494E3,9.97E2,1.129E3,6.12E2,8.13E2,6.81E2,3.45E2,6.52E2,1.07E3,5.9E1,2.64E2,3.48E2,3.94E2,4.19E2,5.01E2,1.8E2,8.7E1,2.58E2,5E2,1.52E2,7.44E2,3.26E2,1E1,4.9E1,1.41E2,1.23E2,1.6E1,3.32E2,1.36E2,2.58E2,2.62E2,2.39E2,5E1,3.7E1,1.54E2,1.04E2,2.89E2,2.11E2,5.6E1,9.6E1,1.02E2,6.42E2,1.04E2,2.22E2,3E0,7E0,3.5E1,1.4E1,2E1,1.21E2,9.1E1,3.2E1,6E0,1E1,3.15E2,1.7E1,8E1,2.4E1,1.53E2,1.36E2,1.91E2,2E1,4.9E1,4.7E1,5.5E1,4.7E1,5.89E2,5.3E1,5.6E1,4.8E1,1.18E2,1.04E2,3E0,4E0,3.2E1,3E0,1E0,1.3E1,9E0,1.1E1,8.8E1,3.3E1,3.5E1,5.6E1,1.3E1,1.9E1,3E0,3E0,5E0,5E0,9.7E1,2.18E2],"tree_param":{"num_deleted":"0","num_feature":"12","num_nodes":"95","size_leaf_vector":"1"}},{"base_weights":[3.5691433E-2,1.57302885E1,-1.0712592E1,1.8878426E1,1.0151584E1,-1.7438084E1,1.34917145E1,2.1421318E1,1.6871948E1,1.2329174E1,5.683699E0,8.409909E0,-2.5810423E1,7.42767E0,1.9081207E1,7.7402186E0,6.256021E0,5.4611335E0,4.824403E0,1.3266232E1,2.9415202E0,7.5231996E0,4.0099244E0,1.5262284E1,-2.8397022E1,-2.8129963E1,8.448646E0,-3.0894485E-1,2.0969963E1,1.380852E1,2.3319E1,4.087844E0,3.5232892E0,2.4372244E0,1.7945513E0,4.6867666E0,2.7082813E0,2.0236794E1,1.2461653E1,1.1038573E1,-3.4510574E1,-9.96584E0,-3.315345E1,-3.000894E1,1.976781E1,-1.3810456E1,8.262293E0,1.8256178E1,1.2744872E1,-1.0139507E1,1.9378922E1,4.7191086E0,3.0705969E1,1.4235709E0,5.3391725E-1,8.3072966E-1,3.105499E-1,7.2922025E0,1.3450751E0,4.3090854E0,3.093541E0,-8.263749E0,-1.3022229E1,-3.3483142E-1,-5.064868E0,-1.1865261E1,-7.606512E0,-1.5774717E1,-5.477249E0,3.6010754E0,1.4852058E1,-9.796829E0,-2.9586058E0,-6.3600984E0,3.084737E0,3.0695002E0,6.5673013E0,-6.2615523E0,-8.394242E-1,3.5029333E0,8.101494E0,7.844062E0,1.0315032E1],"categories":[],"categories_nodes":[],"categories_segments":[],"categories_sizes":[],"default_left":[0,0,0,0,0,0,0,0,0,0,0,0,0,0,0,0,0,0,0,0,0,0,0,0,0,0,0,0,0,0,0,0,0,0,0,0,0,0,0,0,0,0,0,0,0,0,0,0,0,0,0,0,0,0,0,0,0,0,0,0,0,0,0,0,0,0,0,0,0,0,0,0,0,0,0,0,0,0,0,0,0,0,0],"id":5,"left_children":[1,3,5,7,9,11,13,15,17,19,21,23,25,27,29,-1,-1,-1,-1,31,-1,33,35,37,39,41,43,45,47,49,51,-1,-1,-1,-1,53,55,57,59,-1,61,63,65,67,69,71,73,75,-1,77,79,-1,81,-1,-1,-1,-1,-1,-1,-1,-1,-1,-1,-1,-1,-1,-1,-1,-1,-1,-1,-1,-1,-1,-1,-1,-1,-1,-1,-1,-1,-1,-1],"loss_changes":[7.142332E5,3.0033469E4,4.0931625E5,5.2459688E3,5.9912305E3,4.258918E5,1.8398805E4,6.5828125E2,3.5901562E2,8.5858984E2,6.040879E2,1.22000984E5,1.18323125E5,2.7666156E4,6.0238516E3,0E0,0E0,0E0,0E0,5.3945312E0,0E0,4.1242676E1,8.421777E1,5.418047E3,3.1560117E4,1.2668575E5,4.1947445E4,1.9671574E4,4.829051E3,1.7405105E4,8.261883E3,0E0,0E0,0E0,0E0,3.6228027E0,1.2037048E0,9.189016E3,9.2728125E2,0E0,3.1418047E3,1.8529021E4,5.3376875E4,4.8759336E3,1.6492393E4,4.5890615E3,6.4080005E3,2.3136074E3,0E0,1.9113647E3,5.852328E3,0E0,4.0872656E2,0E0,0E0,0E0,0E0,0E0,0E0,0E0,0E0,0E0,0E0,0E0,0E0,0E0,0E0,0E0,0E0,0E0,0E0,0E0,0E0,0E0,0E0,0E0,0E0,0E0,0E0,0E0,0E0,0E0,0E0],"parents":[2147483647,0,0,1,1,2,2,3,3,4,4,5,5,6,6,7,7,8,8,9,9,10,10,11,11,12,12,13,13,14,14,19,19,21,21,22,22,23,23,24,24,25,25,26,26,27,27,28,28,29,29,30,30,35,35,36,36,37,37,38,38,40,40,41,41,42,42,43,43,44,44,45,45,46,46,47,47,49,49,50,50,52,52],"right_children":[2,4,6,8,10,12,14,16,18,20,22,24,26,28,30,-1,-1,-1,-1,32,-1,34,36,38,40,42,44,46,48,50,52,-1,-1,-1,-1,54,56,58,60,-1,62,64,66,68,70,72,74,76,-1,78,80,-1,82,-1,-1,-1,-1,-1,-1,-1,-1,-1,-1,-1,-1,-1,-1,-1,-1,-1,-1,-1,-1,-1,-1,-1,-1,-1,-1,-1,-1,-1,-1],"split_conditions":[-1.0790568E3,-1.4357698E3,1.6023232E2,-1.5517015E3,-1.266331E3,-2.2426994E-1,4.3320126E2,-1.6497976E3,-1.5071124E3,-1.3332148E3,-1.1994474E3,-1.2039063E2,2.3283727E0,1.1522042E0,7.848546E-1,7.7402186E0,6.256021E0,5.4611335E0,4.824403E0,-1.3688861E3,2.9415202E0,-1.2395776E3,-1.1236459E3,-1.7073294E2,-1.9621286E0,-2.54158E2,5.35131E1,3.032409E2,1.9514829E0,8.423278E2,4.5995782E2,4.087844E0,3.5232892E0,2.4372244E0,1.7945513E0,1.7364475E0,1.8389088E0,1.4913684E0,-1.5901099E2,1.1038573E1,-1.3760566E1,-7.981453E2,3.6291935E1,2.1660065E1,1.1127722E2,7.848546E-1,7.848546E-1,2.076818E2,1.2744872E1,7.622474E2,9.8765906E2,4.7191086E0,4.7142493E2,1.4235709E0,5.3391725E-1,8.3072966E-1,3.105499E-1,7.2922025E0,1.3450751E0,4.3090854E0,3.093541E0,-8.263749E0,-1.3022229E1,-3.3483142E-1,-5.064868E0,-1.1865261E1,-7.606512E0,-1.5774717E1,-5.477249E0,3.6010754E0,1.4852058E1,-9.796829E0,-2.9586058E0,-6.3600984E0,3.084737E0,3.0695002E0,6.5673013E0,-6.2615523E0,-8.394242E-1,3.5029333E0,8.101494E0,7.844062E0,1.0315032E1],"split_indices":[11,11,11,11,11,10,11,11,11,11,11,11,10,10,10,0,0,0,0,11,0,11,11,11,10,11,11,11,10,11,11,0,0,0,0,4,4,7,11,0,11,11,11,11,11,10,10,11,0,11,11,0,11,0,0,0,0,0,0,0,0,0,0,0,0,0,0,0,0,0,0,0,0,0,0,0,0,0,0,0,0,0,0],"split_type":[0,0,0,0,0,0,0,0,0,0,0,0,0,0,0,0,0,0,0,0,0,0,0,0,0,0,0,0,0,0,0,0,0,0,0,0,0,0,0,0,0,0,0,0,0,0,0,0,0,0,0,0,0,0,0,0,0,0,0,0,0,0,0,0,0,0,0,0,0,0,0,0,0,0,0,0,0,0,0,0,0,0,0],"sum_hessian":[4.232E3,1.72E3,2.512E3,1.098E3,6.22E2,1.966E3,5.46E2,4.8E2,6.18E2,4.17E2,2.05E2,4.81E2,1.485E3,2.63E2,2.83E2,5E1,4.3E2,2.22E2,3.96E2,3.01E2,1.16E2,9.6E1,1.09E2,4.06E2,7.5E1,1.391E3,9.4E1,1.68E2,9.5E1,1.28E2,1.55E2,2.37E2,6.4E1,6.6E1,3E1,7E1,3.9E1,1.44E2,2.62E2,6E0,6.9E1,3.02E2,1.089E3,2.1E1,7.3E1,6.5E1,1.03E2,8.6E1,9E0,2.4E1,1.04E2,7.8E1,7.7E1,6.8E1,2E0,3.7E1,2E0,1.14E2,3E1,1.36E2,1.26E2,4.1E1,2.8E1,1.33E2,1.69E2,5.96E2,4.93E2,6E0,1.5E1,5.9E1,1.4E1,1E1,5.5E1,6E0,9.7E1,2.8E1,5.8E1,9E0,1.5E1,5.3E1,5.1E1,3.8E1,3.9E1],"tree_param":{"num_deleted":"0","num_feature":"12","num_nodes":"83","size_leaf_vector":"1"}},{"base_weights":[3.7747882E-2,7.7561727E0,-1.1003786E1,1.2133011E1,1.3963202E0,-2.3252504E1,6.7061486E0,1.3962754E1,9.714454E0,1.155928E1,-3.8384721E0,-2.5861937E1,-8.354991E0,2.1483573E-1,1.175621E1,1.5646779E1,3.8310144E0,1.0327387E1,7.8459597E0,2.2655888E1,9.608314E0,2.3979342E0,-1.2367077E1,-2.7152228E0,-2.7439375E1,-2.6828238E1,-7.905663E-1,-1.4174744E1,1.1351319E1,1.0770944E1,2.0884653E1,5.4636884E0,4.544046E0,3.2768931E0,2.9073741E0,2.5195775E0,2.138052E0,7.9309497E0,4.9412093E0,1.1340682E1,7.3089757E0,4.2988205E0,-1.5574288E0,3.1819103E0,-1.4216098E1,8.316107E0,-4.856344E0,2.7333607E1,-2.7876688E1,-3.8284985E1,-1.7772444E1,-5.2251377E0,1.8463554E1,-3.5756763E1,-1.0396649E1,9.250806E0,1.36514435E1,3.5464692E0,1.3382283E1,4.9769607E0,7.291886E0,3.924676E0,3.1453822E0,2.3407042E0,1.4774165E0,1.7486811E0,8.9221376E-1,-2.6687825E-1,-1.5920163E0,6.0918484E0,-3.634468E0,-1.9425871E0,-4.677038E0,3.8911286E-1,2.9658017E0,1.0658653E1,3.6914911E0,-8.92775E0,-6.087578E0,-1.20608015E1,-4.3969297E0,-5.945499E0,-2.7287598E0,-1.933262E-2,-4.421447E0,3.0087085E0,9.27481E0,-1.3616595E1,-7.124967E0,-3.9962878E0,-1.009708E0,5.4132197E-2,4.535429E0,-2.8527498E0,2.8338447E0,3.020026E0,6.6666083E0],"categories":[],"categories_nodes":[],"categories_segments":[],"categories_sizes":[],"default_left":[0,0,0,0,0,0,0,0,0,0,0,0,0,0,0,0,0,0,0,0,0,0,0,0,0,0,0,0,0,0,0,0,0,0,0,0,0,0,0,0,0,0,0,0,0,0,0,0,0,0,0,0,0,0,0,0,0,0,0,0,0,0,0,0,0,0,0,0,0,0,0,0,0,0,0,0,0,0,0,0,0,0,0,0,0,0,0,0,0,0,0,0,0,0,0,0,0],"id":6,"left_children":[1,3,5,7,9,11,13,15,17,19,21,23,25,27,29,31,-1,33,35,37,39,41,43,45,47,49,51,53,55,57,59,-1,-1,-1,-1,-1,-1,-1,-1,61,63,65,67,69,71,73,-1,75,77,79,81,83,85,87,89,91,-1,93,95,-1,-1,-1,-1,-1,-1,-1,-1,-1,-1,-1,-1,-1,-1,-1,-1,-1,-1,-1,-1,-1,-1,-1,-1,-1,-1,-1,-1,-1,-1,-1,-1,-1,-1,-1,-1,-1,-1],"loss_changes":[3.6083534E5,6.93505E4,3.780375E5,6.3961562E3,5.4149777E4,3.982425E4,2.3370707E4,1.4833594E3,6.5079297E2,7.2729062E3,3.5771887E4,3.19105E4,2.163841E4,5.0318938E4,3.381625E3,1.6409375E2,0E0,7.525E1,4.5253906E0,7.571465E2,1.096168E3,2.9314683E3,8.210352E3,8.605993E3,2.040325E4,3.9883281E3,9.574073E3,1.0799082E4,1.2277E4,6.8196016E3,1.5517773E2,0E0,0E0,0E0,0E0,0E0,0E0,0E0,0E0,1.1182031E2,1.1449756E2,5.1578125E2,3.1327542E2,8.366342E3,2.6006172E3,3.39792E2,0E0,4.2496094E2,1.10185625E4,2.7170312E2,2.9901953E2,4.466585E3,1.8955879E3,1.235E3,2.3813271E3,8.937976E3,0E0,7.638184E3,7.6016484E3,0E0,0E0,0E0,0E0,0E0,0E0,0E0,0E0,0E0,0E0,0E0,0E0,0E0,0E0,0E0,0E0,0E0,0E0,0E0,0E0,0E0,0E0,0E0,0E0,0E0,0E0,0E0,0E0,0E0,0E0,0E0,0E0,0E0,0E0,0E0,0E0,0E0,0E0],"parents":[2147483647,0,0,1,1,2,2,3,3,4,4,5,5,6,6,7,7,8,8,9,9,10,10,11,11,12,12,13,13,14,14,15,15,17,17,18,18,19,19,20,20,21,21,22,22,23,23,24,24,25,25,26,26,27,27,28,28,29,29,30,30,39,39,40,40,41,41,42,42,43,43,44,44,45,45,47,47,48,48,49,49,50,50,51,51,52,52,53,53,54,54,55,55,57,57,58,58],"right_children":[2,4,6,8,10,12,14,16,18,20,22,24,26,28,30,32,-1,34,36,38,40,42,44,46,48,50,52,54,56,58,60,-1,-1,-1,-1,-1,-1,-1,-1,62,64,66,68,70,72,74,-1,76,78,80,82,84,86,88,90,92,-1,94,96,-1,-1,-1,-1,-1,-1,-1,-1,-1,-1,-1,-1,-1,-1,-1,-1,-1,-1,-1,-1,-1,-1,-1,-1,-1,-1,-1,-1,-1,-1,-1,-1,-1,-1,-1,-1,-1,-1],"split_conditions":[-1.4321182E2,-1.3064613E3,1.0346491E2,-1.4892767E3,-9.5583814E-1,1.7235235E0,3.032409E2,-1.578455E3,-1.3822628E3,-1.7786806E2,-7.2680273E2,-1.2039063E2,3.9969604E1,1.1522042E0,1.0202844E3,-1.6497976E3,3.8310144E0,-1.4402286E3,-1.3332148E3,-1.8398386E2,-1.630882E2,-1.0567622E3,-2.2426994E-1,-9.5583814E-1,-1.9621286E0,1.9984802E1,2.875513E0,7.848546E-1,2.7579253E0,7.848546E-1,1.0558757E3,5.4636884E0,4.544046E0,3.2768931E0,2.9073741E0,2.5195775E0,2.138052E0,7.9309497E0,4.9412093E0,-1.722619E2,-1.4932762E2,-1.221742E3,7.346313E-1,-3.295537E2,-5.127749E2,-9.025995E-1,-4.856344E0,4.9821556E-2,1.1522042E0,9.862496E-1,1.7384708E-1,7.72183E1,3.259041E0,1.6023232E2,2.076818E2,1.3108054E2,1.36514435E1,8.423278E2,4.6250607E2,4.9769607E0,7.291886E0,3.924676E0,3.1453822E0,2.3407042E0,1.4774165E0,1.7486811E0,8.9221376E-1,-2.6687825E-1,-1.5920163E0,6.0918484E0,-3.634468E0,-1.9425871E0,-4.677038E0,3.8911286E-1,2.9658017E0,1.0658653E1,3.6914911E0,-8.92775E0,-6.087578E0,-1.20608015E1,-4.3969297E0,-5.945499E0,-2.7287598E0,-1.933262E-2,-4.421447E0,3.0087085E0,9.27481E0,-1.3616595E1,-7.124967E0,-3.9962878E0,-1.009708E0,5.4132197E-2,4.535429E0,-2.8527498E0,2.8338447E0,3.020026E0,6.6666083E0],"split_indices":[11,11,11,11,10,10,11,11,11,11,11,11,11,10,11,11,0,11,11,11,11,11,10,10,10,11,10,10,10,10,11,0,0,0,0,0,0,0,0,11,11,11,6,11,11,8,0,2,10,3,9,11,10,11,11,11,0,11,11,0,0,0,0,0,0,0,0,0,0,0,0,0,0,0,0,0,0,0,0,0,0,0,0,0,0,0,0,0,0,0,0,0,0,0,0,0,0],"split_type":[0,0,0,0,0,0,0,0,0,0,0,0,0,0,0,0,0,0,0,0,0,0,0,0,0,0,0,0,0,0,0,0,0,0,0,0,0,0,0,0,0,0,0,0,0,0,0,0,0,0,0,0,0,0,0,0,0,0,0,0,0,0,0,0,0,0,0,0,0,0,0,0,0,0,0,0,0,0,0,0,0,0,0,0,0,0,0,0,0,0,0,0,0,0,0,0,0],"sum_hessian":[4.232E3,2.491E3,1.741E3,1.475E3,1.016E3,1.029E3,7.12E2,8.37E2,6.38E2,3.45E2,6.71E2,8.75E2,1.54E2,3.12E2,4E2,3.42E2,4.95E2,4.77E2,1.61E2,5E1,2.95E2,3.88E2,2.83E2,5.6E1,8.19E2,4.4E1,1.1E2,1.36E2,1.76E2,3.63E2,3.7E1,5E1,2.92E2,2.38E2,2.39E2,8.5E1,7.6E1,2.9E1,2.1E1,1.66E2,1.29E2,2.62E2,1.26E2,3E1,2.53E2,3.1E1,2.5E1,6E0,8.13E2,1.8E1,2.6E1,9E1,2E1,1.9E1,1.17E2,1.67E2,9E0,9.7E1,2.66E2,1.9E1,1.8E1,5E1,1.16E2,1.05E2,2.4E1,1.2E2,1.42E2,1.08E2,1.8E1,1.4E1,1.6E1,3.9E1,2.14E2,6E0,2.5E1,3E0,3E0,6.49E2,1.64E2,1.6E1,2E0,2E1,6E0,5.9E1,3.1E1,1.3E1,7E0,9E0,1E1,8.2E1,3.5E1,6.6E1,1.01E2,3E1,6.7E1,1.95E2,7.1E1],"tree_param":{"num_deleted":"0","num_feature":"12","num_nodes":"97","size_leaf_vector":"1"}},{"base_weights":[3.588085E-2,5.447401E0,-7.7055335E0,8.347583E0,7.4716187E-1,-1.6156248E1,5.0180335E0,1.0152548E1,6.9177814E0,7.699262E0,-3.7844443E0,-1.728908E1,5.852547E0,1.1295699E0,8.880977E0,3.5814755E0,9.683313E0,7.717754E0,5.6884117E0,6.818918E0,7.394093E0,4.6106508E-1,-1.0934842E1,-5.6321454E0,-1.8569351E1,-7.4803486E0,1.254225E1,-7.8840117E0,1.0085191E1,7.9660025E0,1.3953695E1,3.060011E0,2.7404718E0,2.4176407E0,2.1758094E0,1.8730326E0,1.4564683E0,8.160168E0,-3.5041406E0,1.9224193E0,-3.4015207E0,-9.620346E0,-4.986075E0,6.125983E0,-3.6173077E0,-2.3400383E1,-1.4686713E1,-5.6534967E0,-3.951088E0,7.326569E0,7.454638E0,-2.1961714E1,-5.594284E0,8.867201E0,1.1415062E1,1.7098753E0,1.01763115E1,3.485532E0,1.7398169E1,4.833455E0,2.0287812E0,6.625067E-1,-6.5885315E0,8.819606E-1,2.196521E-1,-4.8209676E-1,-1.6677378E0,-3.5951712E0,-2.7109241E0,1.1817908E0,3.425227E0,6.355063E0,-7.2410493E0,-1.1759291E1,-4.042978E0,1.09743506E-1,-1.8438358E0,4.0822515E0,9.602781E-1,-8.842684E0,-3.5974548E0,-2.8772175E0,-3.578204E-1,1.0812659E0,3.6122365E0,-4.642165E0,1.3273604E0,2.001604E0,4.493801E0,1.6896669E0,5.535328E0],"categories":[],"categories_nodes":[],"categories_segments":[],"categories_sizes":[],"default_left":[0,0,0,0,0,0,0,0,0,0,0,0,0,0,0,0,0,0,0,0,0,0,0,0,0,0,0,0,0,0,0,0,0,0,0,0,0,0,0,0,0,0,0,0,0,0,0,0,0,0,0,0,0,0,0,0,0,0,0,0,0,0,0,0,0,0,0,0,0,0,0,0,0,0,0,0,0,0,0,0,0,0,0,0,0,0,0,0,0,0,0],"id":7,"left_children":[1,3,5,7,9,11,13,15,17,19,21,23,25,27,29,-1,31,33,35,-1,37,39,41,43,45,47,49,51,53,55,57,-1,-1,-1,-1,-1,-1,59,61,63,65,67,-1,69,-1,71,73,-1,75,77,-1,79,81,83,-1,85,87,-1,89,-1,-1,-1,-1,-1,-1,-1,-1,-1,-1,-1,-1,-1,-1,-1,-1,-1,-1,-1,-1,-1,-1,-1,-1,-1,-1,-1,-1,-1,-1,-1,-1],"loss_changes":[1.773743E5,3.396357E4,1.8738653E5,3.9066875E3,3.0021117E4,2.6205281E4,1.0444525E4,4.5334375E2,8.048242E2,1.556584E3,1.7521078E4,1.475975E4,4.731862E3,2.8170844E4,1.5086973E3,0E0,6.0691406E1,2.4029297E1,1.2883203E2,0E0,3.1176719E3,2.055531E3,1.4468965E3,7.629105E3,1.64815E4,6.4749963E2,2.0644883E3,5.485875E3,5.623295E3,4.103338E3,2.1613379E2,0E0,0E0,0E0,0E0,0E0,0E0,3.7359746E3,2.6844778E3,3.1755542E2,3.782556E2,1.3599707E2,0E0,3.715681E2,0E0,1.3579125E4,1.4302344E4,0E0,1.4438425E2,6.301787E2,0E0,1.4445039E3,2.6447314E3,2.7793281E3,0E0,3.75366E3,3.6029277E3,0E0,1.3146387E2,0E0,0E0,0E0,0E0,0E0,0E0,0E0,0E0,0E0,0E0,0E0,0E0,0E0,0E0,0E0,0E0,0E0,0E0,0E0,0E0,0E0,0E0,0E0,0E0,0E0,0E0,0E0,0E0,0E0,0E0,0E0,0E0],"parents":[2147483647,0,0,1,1,2,2,3,3,4,4,5,5,6,6,7,7,8,8,9,9,10,10,11,11,12,12,13,13,14,14,16,16,17,17,18,18,20,20,21,21,22,22,23,23,24,24,25,25,26,26,27,27,28,28,29,29,30,30,37,37,38,38,39,39,40,40,41,41,43,43,45,45,46,46,48,48,49,49,51,51,52,52,53,53,55,55,56,56,58,58],"right_children":[2,4,6,8,10,12,14,16,18,20,22,24,26,28,30,-1,32,34,36,-1,38,40,42,44,46,48,50,52,54,56,58,-1,-1,-1,-1,-1,-1,60,62,64,66,68,-1,70,-1,72,74,-1,76,78,-1,80,82,84,-1,86,88,-1,90,-1,-1,-1,-1,-1,-1,-1,-1,-1,-1,-1,-1,-1,-1,-1,-1,-1,-1,-1,-1,-1,-1,-1,-1,-1,-1,-1,-1,-1,-1,-1,-1],"split_conditions":[-1.4321182E2,-1.2529543E3,1.070262E2,-1.5160302E3,-2.2426994E-1,2.4865336E0,3.745917E2,-1.6185852E3,-1.4223931E3,-3.522541E2,-5.127749E2,-1.02554985E2,7.262492E1,1.1522042E0,9.8765906E2,3.5814755E0,-1.5561604E3,-1.4580643E3,-1.3332148E3,6.818918E0,1.4913684E0,-9.3191266E2,-1.8143561E2,-9.5583814E-1,2.1912111E1,2.1660065E1,3.082392E0,7.848546E-1,2.7579253E0,7.848546E-1,1.0558757E3,3.060011E0,2.7404718E0,2.4176407E0,2.1758094E0,1.8730326E0,1.4564683E0,-1.7786806E2,-2.7645258E2,-1.1236459E3,7.077243E-2,-4.5035016E2,-4.986075E0,7.077243E-2,-3.6173077E0,-1.9621286E0,7.848546E-1,-5.6534967E0,-1.24376E0,-1.4224936E0,7.454638E0,1.7935078E2,1.9515474E2,1.449396E2,1.1415062E1,7.622474E2,4.5358722E2,3.485532E0,-1.7278512E0,4.833455E0,2.0287812E0,6.625067E-1,-6.5885315E0,8.819606E-1,2.196521E-1,-4.8209676E-1,-1.6677378E0,-3.5951712E0,-2.7109241E0,1.1817908E0,3.425227E0,6.355063E0,-7.2410493E0,-1.1759291E1,-4.042978E0,1.09743506E-1,-1.8438358E0,4.0822515E0,9.602781E-1,-8.842684E0,-3.5974548E0,-2.8772175E0,-3.578204E-1,1.0812659E0,3.6122365E0,-4.642165E0,1.3273604E0,2.001604E0,4.493801E0,1.6896669E0,5.535328E0],"split_indices":[11,11,11,11,10,10,11,11,11,11,11,11,11,10,11,0,11,11,11,0,7,11,11,10,11,11,10,10,10,10,11,0,0,0,0,0,0,11,11,11,9,11,0,9,0,10,10,0,9,8,0,11,11,11,0,11,11,0,8,0,0,0,0,0,0,0,0,0,0,0,0,0,0,0,0,0,0,0,0,0,0,0,0,0,0,0,0,0,0,0,0],"split_type":[0,0,0,0,0,0,0,0,0,0,0,0,0,0,0,0,0,0,0,0,0,0,0,0,0,0,0,0,0,0,0,0,0,0,0,0,0,0,0,0,0,0,0,0,0,0,0,0,0,0,0,0,0,0,0,0,0,0,0,0,0,0,0,0,0,0,0,0,0,0,0,0,0,0,0,0,0,0,0,0,0,0,0,0,0,0,0,0,0,0,0],"sum_hessian":[4.232E3,2.491E3,1.741E3,1.54E3,9.51E2,1.046E3,6.95E2,6.78E2,8.62E2,3.75E2,5.76E2,9.95E2,5.1E1,3.47E2,3.48E2,1.36E2,5.42E2,5.19E2,3.43E2,6E0,3.69E2,3.62E2,2.14E2,9.9E1,8.96E2,1.7E1,3.4E1,1.73E2,1.74E2,2.97E2,5.1E1,2.7E2,2.72E2,2.9E2,2.29E2,2.02E2,1.41E2,3.45E2,2.4E1,2.63E2,9.9E1,1.76E2,3.8E1,3.5E1,6.4E1,3.97E2,4.99E2,3E0,1.4E1,2.5E1,9E0,2.3E1,1.5E2,1.68E2,6E0,7.8E1,2.19E2,3.3E1,1.8E1,5E1,2.95E2,1.9E1,5E0,1.41E2,1.22E2,5.5E1,4.4E1,3.1E1,1.45E2,2.6E1,9E0,6E0,3.91E2,2.2E1,4.77E2,5E0,9E0,9E0,1.6E1,1.2E1,1.1E1,7.8E1,7.2E1,6.4E1,1.04E2,1E1,6.8E1,1.28E2,9.1E1,2E0,1.6E1],"tree_param":{"num_deleted":"0","num_feature":"12","num_nodes":"91","size_leaf_vector":"1"}},{"base_weights":[2.9002834E-2,3.7565897E0,-5.49466E0,5.971132E0,6.488773E-1,-1.1704249E1,3.5331995E0,7.1206017E0,4.9855914E0,5.7302394E0,-2.0439324E0,-1.4237893E1,-5.594432E0,2.923049E0,2.0495623E1,8.748315E0,6.834285E0,5.4112644E0,4.174353E0,5.2809753E0,5.1711006E0,1.7617995E-1,-8.822842E0,-5.0515413E0,-1.5438234E1,-1.2571163E1,-6.8686205E-1,-1.5310253E0,5.9480844E0,2.368581E1,3.6357484E0,3.0245924E0,2.4035017E0,2.1922429E0,1.9485317E0,1.6789587E0,1.4803859E0,1.3646827E0,1.1326417E0,7.7660923E0,4.309439E0,1.7167628E0,-2.4645905E0,-7.8789907E0,-1.0421918E1,1.1097356E-2,-1.5177216E1,-2.7965696E0,-1.6322056E1,-6.3768563E0,-9.150474E0,4.321761E0,-6.614528E0,-6.8581758E0,5.8476524E0,5.427339E0,1.0779748E1,4.6714835E0,3.0242847E1,1.3172547E0,5.0061953E-1,2.5169132E0,1.8753184E0,1.58683E0,9.9796814E-1,8.2964224E-1,2.194817E-1,-1.1548437E0,2.6986992E0,-3.762621E0,-2.1879363E0,-3.4780934E0,-2.1131399E0,4.720901E0,-6.44246E-1,-3.1732845E0,-6.7196207E0,-6.1641216E0,-4.2050915E0,-2.3459537E0,-4.2115655E0,-5.4372054E-1,2.864118E0,-5.439831E0,1.8764021E0,-5.5228753E0,-1.5758891E0,-4.616634E-1,3.084128E0,5.1618576E-1,2.0302594E0,2.8107781E0,4.7063193E0,9.950992E0,3.7068696E0],"categories":[],"categories_nodes":[],"categories_segments":[],"categories_sizes":[],"default_left":[0,0,0,0,0,0,0,0,0,0,0,0,0,0,0,0,0,0,0,0,0,0,0,0,0,0,0,0,0,0,0,0,0,0,0,0,0,0,0,0,0,0,0,0,0,0,0,0,0,0,0,0,0,0,0,0,0,0,0,0,0,0,0,0,0,0,0,0,0,0,0,0,0,0,0,0,0,0,0,0,0,0,0,0,0,0,0,0,0,0,0,0,0,0,0],"id":8,"left_children":[1,3,5,7,9,11,13,15,17,19,21,23,25,27,29,31,33,35,37,-1,39,41,43,45,47,49,51,53,55,57,59,-1,-1,-1,-1,-1,-1,-1,-1,61,63,65,67,69,71,73,75,-1,77,-1,79,81,83,85,87,89,91,-1,93,-1,-1,-1,-1,-1,-1,-1,-1,-1,-1,-1,-1,-1,-1,-1,-1,-1,-1,-1,-1,-1,-1,-1,-1,-1,-1,-1,-1,-1,-1,-1,-1,-1,-1,-1,-1],"loss_changes":[8.717781E4,1.7394227E4,9.567853E4,1.636582E3,1.4420059E4,1.5570719E4,7.1434346E3,2.5665625E2,2.5297852E2,2.332082E3,1.0370963E4,7.795125E3,1.0194527E4,9.076929E3,1.2047529E3,1.5504883E1,4.5945312E1,1.8301758E1,2.4512695E1,0E0,7.4913477E2,2.1197605E3,1.7446582E2,4.3062285E3,3.258875E3,3.4596738E3,5.2539287E3,1.0771005E4,9.504375E2,5.931719E2,9.932709E-2,0E0,0E0,0E0,0E0,0E0,0E0,0E0,0E0,2.8807617E1,2.3765625E2,3.378816E2,3.081893E3,2.1177637E2,1.5583008E2,1.9686155E3,6.931255E2,0E0,5.0684375E3,0E0,4.756006E2,3.0943755E3,1.212009E4,2.8515454E3,3.7812441E3,1.7966045E3,1.16078125E2,0E0,1.1370703E2,0E0,0E0,0E0,0E0,0E0,0E0,0E0,0E0,0E0,0E0,0E0,0E0,0E0,0E0,0E0,0E0,0E0,0E0,0E0,0E0,0E0,0E0,0E0,0E0,0E0,0E0,0E0,0E0,0E0,0E0,0E0,0E0,0E0,0E0,0E0,0E0],"parents":[2147483647,0,0,1,1,2,2,3,3,4,4,5,5,6,6,7,7,8,8,9,9,10,10,11,11,12,12,13,13,14,14,15,15,16,16,17,17,18,18,20,20,21,21,22,22,23,23,24,24,25,25,26,26,27,27,28,28,29,29,30,30,39,39,40,40,41,41,42,42,43,43,44,44,45,45,46,46,48,48,50,50,51,51,52,52,53,53,54,54,55,55,56,56,58,58],"right_children":[2,4,6,8,10,12,14,16,18,20,22,24,26,28,30,32,34,36,38,-1,40,42,44,46,48,50,52,54,56,58,60,-1,-1,-1,-1,-1,-1,-1,-1,62,64,66,68,70,72,74,76,-1,78,-1,80,82,84,86,88,90,92,-1,94,-1,-1,-1,-1,-1,-1,-1,-1,-1,-1,-1,-1,-1,-1,-1,-1,-1,-1,-1,-1,-1,-1,-1,-1,-1,-1,-1,-1,-1,-1,-1,-1,-1,-1,-1,-1],"split_conditions":[-1.340381E2,-1.3064613E3,1.070262E2,-1.5160302E3,-9.5583814E-1,1.4603796E0,2.151349E0,-1.6364208E3,-1.4223931E3,-1.8727432E2,-3.0766495E2,-9.5583814E-1,4.459425E1,3.032409E2,9.862496E-1,-1.6631743E3,-1.582914E3,-1.4446876E3,-1.3688861E3,5.2809753E0,-1.722619E2,-9.3191266E2,-1.8398386E2,-1.3760566E1,-8.026042E1,1.4477985E1,7.72183E1,1.4603796E0,1.0202844E3,1.2231566E2,7.941578E-1,3.0245924E0,2.4035017E0,2.1922429E0,1.9485317E0,1.6789587E0,1.4803859E0,1.3646827E0,1.1326417E0,-1.7531981E2,-1.6104959E2,-1.172694E3,1.4913684E0,-2.2426994E-1,-1.4626971E2,-1.9621286E0,-6.625458E0,-2.7965696E0,7.848546E-1,-6.3768563E0,2.151349E0,5.8929543E1,2.151349E0,7.848546E-1,1.449396E2,7.848546E-1,1.5629586E0,4.6714835E0,1.3669703E0,1.3172547E0,5.0061953E-1,2.5169132E0,1.8753184E0,1.58683E0,9.9796814E-1,8.2964224E-1,2.194817E-1,-1.1548437E0,2.6986992E0,-3.762621E0,-2.1879363E0,-3.4780934E0,-2.1131399E0,4.720901E0,-6.44246E-1,-3.1732845E0,-6.7196207E0,-6.1641216E0,-4.2050915E0,-2.3459537E0,-4.2115655E0,-5.4372054E-1,2.864118E0,-5.439831E0,1.8764021E0,-5.5228753E0,-1.5758891E0,-4.616634E-1,3.084128E0,5.1618576E-1,2.0302594E0,2.8107781E0,4.7063193E0,9.950992E0,3.7068696E0],"split_indices":[11,11,11,11,10,10,10,11,11,11,11,10,11,11,3,11,11,11,11,0,11,11,11,11,11,11,11,10,11,11,2,0,0,0,0,0,0,0,0,11,11,11,7,10,11,10,11,0,10,0,10,11,10,10,11,10,4,0,2,0,0,0,0,0,0,0,0,0,0,0,0,0,0,0,0,0,0,0,0,0,0,0,0,0,0,0,0,0,0,0,0,0,0,0,0],"split_type":[0,0,0,0,0,0,0,0,0,0,0,0,0,0,0,0,0,0,0,0,0,0,0,0,0,0,0,0,0,0,0,0,0,0,0,0,0,0,0,0,0,0,0,0,0,0,0,0,0,0,0,0,0,0,0,0,0,0,0,0,0,0,0,0,0,0,0,0,0,0,0,0,0,0,0,0,0,0,0,0,0,0,0,0,0,0,0,0,0,0,0,0,0,0,0],"sum_hessian":[4.232E3,2.527E3,1.705E3,1.475E3,1.052E3,1.01E3,6.95E2,6.78E2,7.97E2,3.64E2,6.88E2,7.13E2,2.97E2,6.72E2,2.3E1,9.7E1,5.81E2,5.19E2,2.78E2,1.5E1,3.49E2,5.19E2,1.69E2,8.3E1,6.3E2,1.22E2,1.75E2,2.72E2,4E2,1.9E1,4E0,3E1,6.7E1,2.34E2,3.47E2,3.66E2,1.53E2,1.38E2,1.4E2,8.5E1,2.64E2,3.28E2,1.91E2,1.1E2,5.9E1,5.6E1,2.7E1,8.1E1,5.49E2,3.3E1,8.9E1,9.5E1,8E1,1.58E2,1.14E2,3.63E2,3.7E1,1E1,9E0,2E0,2E0,5.7E1,2.8E1,1.3E2,1.34E2,1.58E2,1.7E2,1.71E2,2E1,1E1,1E2,4.2E1,1.7E1,6E0,5E1,1.8E1,9E0,1.91E2,3.58E2,7.2E1,1.7E1,4.4E1,5.1E1,4.2E1,3.8E1,1.8E1,1.4E2,4.3E1,7.1E1,9.7E1,2.66E2,3.1E1,6E0,7E0,2E0],"tree_param":{"num_deleted":"0","num_feature":"12","num_nodes":"95","size_leaf_vector":"1"}},{"base_weights":[2.292921E-2,2.63695E0,-3.8506157E0,4.113649E0,3.3104914E-1,-7.992046E0,2.9572914E0,4.9475694E0,3.3608303E0,3.8251543E0,-1.9930292E0,-9.993579E0,-3.5084114E0,2.2816439E0,1.1720484E1,6.1792064E0,4.7487593E0,3.6466324E0,2.606968E0,1.4571777E1,3.621937E0,6.642707E-1,-5.162668E0,-4.6017303E0,-1.1031084E1,-8.904971E0,-2.8481108E-1,-2.4899707E0,3.9167933E0,8.424115E0,2.2744999E1,2.1464834E0,1.6930542E0,1.5008687E0,1.3013302E0,1.1608666E0,1.0117242E0,8.642716E-1,7.2681105E-1,1.5842702E1,1.0419343E0,4.04476E0,-2.6961596E0,1.2843031E0,-3.076244E-1,-4.4538703E0,-7.340492E0,-5.0690126E0,7.6507325E0,-1.2142775E1,-7.215677E0,-1.5066886E1,-6.4781923E0,-1.3777188E0,1.6130713E1,-1.317903E1,-1.3269287E0,3.4796581E0,1.4166153E1,4.255407E0,1.6754309E1,2.5901798E1,6.7451987E0,5.226599E0,1.1919342E0,3.084759E0,1.0427337E0,1.24066815E-1,-4.56532E0,5.857679E-1,3.2920605E-1,4.7432837E-1,-3.130034E-1,-1.3902808E0,4.0872803E-1,-2.4141688E0,-1.5144168E0,1.8119389E-1,-1.9984515E0,-1.9482063E0,-3.865203E0,-8.546983E0,-1.558918E0,-3.8638093E0,-5.708701E0,-1.6518083E0,-3.0182889E0,8.60199E-1,-1.5591754E0,2.9773688E0,7.222693E0,-5.439892E0,-1.9733131E0,-7.3378015E-1,7.12644E-1,-1.7414995E0,1.2566242E0,3.1527917E0,5.52339E0,8.137877E-1,4.5537567E0,5.7139196E0,-1.2688019E0,2.0311983E0,8.300275E0,-8.11528E-1,3.8468676E0],"categories":[],"categories_nodes":[],"categories_segments":[],"categories_sizes":[],"default_left":[0,0,0,0,0,0,0,0,0,0,0,0,0,0,0,0,0,0,0,0,0,0,0,0,0,0,0,0,0,0,0,0,0,0,0,0,0,0,0,0,0,0,0,0,0,0,0,0,0,0,0,0,0,0,0,0,0,0,0,0,0,0,0,0,0,0,0,0,0,0,0,0,0,0,0,0,0,0,0,0,0,0,0,0,0,0,0,0,0,0,0,0,0,0,0,0,0,0,0,0,0,0,0,0,0,0,0],"id":9,"left_children":[1,3,5,7,9,11,13,15,17,19,21,23,25,27,29,31,33,35,37,39,41,43,45,47,49,51,53,55,57,59,61,-1,-1,-1,-1,-1,-1,-1,-1,63,-1,65,67,69,71,73,75,77,-1,79,81,83,85,87,89,91,93,95,97,99,101,103,105,-1,-1,-1,-1,-1,-1,-1,-1,-1,-1,-1,-1,-1,-1,-1,-1,-1,-1,-1,-1,-1,-1,-1,-1,-1,-1,-1,-1,-1,-1,-1,-1,-1,-1,-1,-1,-1,-1,-1,-1,-1,-1,-1,-1],"loss_changes":[4.2871508E4,8.606785E3,4.81234E4,9.507969E2,8.030752E3,9.486508E3,3.7981147E3,1.4916016E2,1.6565918E2,8.098618E2,5.006502E3,4.0496953E3,5.7208633E3,4.698937E3,1.4800732E3,1.0844971E1,4.430957E1,2.2833496E1,4.4786377E0,4.3715454E1,1.0500952E3,1.9563957E2,3.8563184E2,1.8173301E3,2.5166953E3,1.7416875E3,3.7359387E3,1.8970137E3,1.9579058E3,1.2135708E3,3.3036865E2,0E0,0E0,0E0,0E0,0E0,0E0,0E0,0E0,4.3253906E1,0E0,1.2597095E3,9.797567E2,2.2593567E1,1.7812485E2,2.2350977E2,6.468701E1,1.079093E3,0E0,1.9009922E3,5.9091426E3,4.9604492E1,2.5807837E2,3.1766516E3,4.0205615E2,3.7126465E2,5.858323E2,2.8618682E3,8.593945E1,3.9700275E2,6.5771045E2,8.292383E1,2.0699504E2,0E0,0E0,0E0,0E0,0E0,0E0,0E0,0E0,0E0,0E0,0E0,0E0,0E0,0E0,0E0,0E0,0E0,0E0,0E0,0E0,0E0,0E0,0E0,0E0,0E0,0E0,0E0,0E0,0E0,0E0,0E0,0E0,0E0,0E0,0E0,0E0,0E0,0E0,0E0,0E0,0E0,0E0,0E0,0E0],"parents":[2147483647,0,0,1,1,2,2,3,3,4,4,5,5,6,6,7,7,8,8,9,9,10,10,11,11,12,12,13,13,14,14,15,15,16,16,17,17,18,18,19,19,20,20,21,21,22,22,23,23,24,24,25,25,26,26,27,27,28,28,29,29,30,30,39,39,41,41,42,42,43,43,44,44,45,45,46,46,47,47,49,49,50,50,51,51,52,52,53,53,54,54,55,55,56,56,57,57,58,58,59,59,60,60,61,61,62,62],"right_children":[2,4,6,8,10,12,14,16,18,20,22,24,26,28,30,32,34,36,38,40,42,44,46,48,50,52,54,56,58,60,62,-1,-1,-1,-1,-1,-1,-1,-1,64,-1,66,68,70,72,74,76,78,-1,80,82,84,86,88,90,92,94,96,98,100,102,104,106,-1,-1,-1,-1,-1,-1,-1,-1,-1,-1,-1,-1,-1,-1,-1,-1,-1,-1,-1,-1,-1,-1,-1,-1,-1,-1,-1,-1,-1,-1,-1,-1,-1,-1,-1,-1,-1,-1,-1,-1,-1,-1,-1,-1],"split_conditions":[-1.340381E2,-1.2529543E3,1.1721917E2,-1.4981946E3,-2.2426994E-1,1.4603796E0,1.7235235E0,-1.6364208E3,-1.3822628E3,-3.522541E2,-7.2680273E2,-7.580151E1,4.459425E1,2.4377223E2,2.205345E0,-1.6631743E3,-1.5517015E3,-1.4446876E3,-1.3332148E3,-3.831948E-2,1.4913684E0,-1.0567622E3,-1.9162862E2,1.4913684E0,6.625431E1,1.4477985E1,3.082392E0,7.848546E-1,1.4603796E0,1.7073227E2,9.9284613E-1,2.1464834E0,1.6930542E0,1.5008687E0,1.3013302E0,1.1608666E0,1.0117242E0,8.642716E-1,7.2681105E-1,1.7697945E0,1.0419343E0,-1.8398386E2,-2.6307584E2,-1.2395776E3,-5.459342E-1,2.0188158E0,-1.4626971E2,-9.5583814E-1,7.6507325E0,-9.5583814E-1,7.848546E-1,1.9514829E0,2.151349E0,7.72183E1,2.16916E-1,1.6023232E2,1.1130866E0,3.032409E2,2.5335878E2,2.4865336E0,-8.789163E-2,-1.7270943E0,-4.5924467E-1,5.226599E0,1.1919342E0,3.084759E0,1.0427337E0,1.24066815E-1,-4.56532E0,5.857679E-1,3.2920605E-1,4.7432837E-1,-3.130034E-1,-1.3902808E0,4.0872803E-1,-2.4141688E0,-1.5144168E0,1.8119389E-1,-1.9984515E0,-1.9482063E0,-3.865203E0,-8.546983E0,-1.558918E0,-3.8638093E0,-5.708701E0,-1.6518083E0,-3.0182889E0,8.60199E-1,-1.5591754E0,2.9773688E0,7.222693E0,-5.439892E0,-1.9733131E0,-7.3378015E-1,7.12644E-1,-1.7414995E0,1.2566242E0,3.1527917E0,5.52339E0,8.137877E-1,4.5537567E0,5.7139196E0,-1.2688019E0,2.0311983E0,8.300275E0,-8.11528E-1,3.8468676E0],"split_indices":[11,11,11,11,10,10,10,11,11,11,11,11,11,11,7,11,11,11,11,3,7,11,11,7,11,11,10,10,10,11,8,0,0,0,0,0,0,0,0,2,0,11,11,11,9,4,11,10,0,10,10,10,10,11,8,11,7,11,11,10,4,9,3,0,0,0,0,0,0,0,0,0,0,0,0,0,0,0,0,0,0,0,0,0,0,0,0,0,0,0,0,0,0,0,0,0,0,0,0,0,0,0,0,0,0,0,0],"split_type":[0,0,0,0,0,0,0,0,0,0,0,0,0,0,0,0,0,0,0,0,0,0,0,0,0,0,0,0,0,0,0,0,0,0,0,0,0,0,0,0,0,0,0,0,0,0,0,0,0,0,0,0,0,0,0,0,0,0,0,0,0,0,0,0,0,0,0,0,0,0,0,0,0,0,0,0,0,0,0,0,0,0,0,0,0,0,0,0,0,0,0,0,0,0,0,0,0,0,0,0,0,0,0,0,0,0,0],"sum_hessian":[4.232E3,2.527E3,1.705E3,1.54E3,9.87E2,1.06E3,6.45E2,7.28E2,8.12E2,3.94E2,5.93E2,7.32E2,3.28E2,6E2,4.5E1,9.7E1,6.31E2,5.86E2,2.26E2,6E0,3.88E2,3.23E2,2.7E2,1.19E2,6.13E2,1.22E2,2.06E2,1.53E2,4.47E2,3.6E1,9E0,3E1,6.7E1,3.83E2,2.48E2,3.16E2,2.7E2,8.5E1,1.41E2,5E0,1E0,3.64E2,2.4E1,1.97E2,1.26E2,2.06E2,6.4E1,1.18E2,1E0,4.73E2,1.4E2,3.3E1,8.9E1,1.94E2,1.2E1,1.4E1,1.39E2,4.3E2,1.7E1,2.5E1,1.1E1,7E0,2E0,4E0,1E0,2.9E1,3.35E2,2E1,4E0,4.1E1,1.56E2,3.5E1,9.1E1,2E2,6E0,4.7E1,1.7E1,2.6E1,9.2E1,5.6E1,4.17E2,1.1E1,1.29E2,2.4E1,9E0,7.2E1,1.7E1,9.2E1,1.02E2,8E0,4E0,7E0,7E0,1.07E2,3.2E1,3E1,4E2,1.1E1,6E0,2.3E1,2E0,1E1,1E0,1E0,6E0,1E0,1E0],"tree_param":{"num_deleted":"0","num_feature":"12","num_nodes":"107","size_leaf_vector":"1"}},{"base_weights":[2.1447098E-2,1.9128001E0,-2.6140568E0,2.886314E0,2.8891066E-1,-5.6418605E0,1.7131826E0,3.4027805E0,2.2674427E0,2.855975E0,-1.2858202E0,-1.1543843E0,-6.2585464E0,1.1958187E0,1.2253538E1,3.8578558E0,3.0980709E0,2.4564652E0,1.798561E0,1.126603E1,2.677575E0,2.8402877E-1,-3.9677513E0,1.0815797E0,-9.098742E0,-8.818011E0,-4.391028E0,-4.2409453E0,2.301764E0,8.561501E0,1.8308815E1,1.5233105E0,3.7198656E0,3.2661562E0,2.935987E0,2.0166185E0,2.5223556E0,1.9839909E0,1.7010152E0,1.2159653E1,8.8564456E-1,3.0374682E0,-2.0649524E0,6.5565294E-1,-1.3378062E0,-3.5934558E0,-1.8617316E0,1.19884815E1,2.578574E-1,-5.7256765E0,-4.3793077E0,-4.679004E0,-1.1617164E1,-5.6851244E0,-2.7223033E-1,-5.075586E0,-2.9104328E0,2.032534E0,4.8057165E0,7.049791E0,6.2728686E0,5.7181787E0,1.5058869E0,1.0538423E0,1.2808374E0,9.491759E-1,1.1495467E0,7.211845E-1,9.314581E-1,7.1412486E-1,5.400858E-1,9.7339916E-1,7.175536E-1,1.4773865E-1,5.9988046E-1,4.433995E-1,5.5521584E-1,3.9722168E0,1.0131454E0,2.9281158E0,8.031583E-1,6.2391484E-1,-2.2587152E0,2.4222578E-1,-4.4372797E-1,-8.406381E-1,9.659961E-1,-1.8106474E0,-9.177651E-1,1.3279065E0,6.17876E0,5.8805317E-1,-8.003317E-1,-2.2275057E0,-5.255408E-1,-2.2015238E0,-1.3738638E0,-3.859265E0,-2.5027225E0,-4.5783978E0,-1.5518678E0,2.3353226E-1,-2.1534858E0,-1.7422695E0,-2.0018324E-1,1.37916E-1,1.3576497E0,2.3194385E0,4.6617128E-2],"categories":[],"categories_nodes":[],"categories_segments":[],"categories_sizes":[],"default_left":[0,0,0,0,0,0,0,0,0,0,0,0,0,0,0,0,0,0,0,0,0,0,0,0,0,0,0,0,0,0,0,0,0,0,0,0,0,0,0,0,0,0,0,0,0,0,0,0,0,0,0,0,0,0,0,0,0,0,0,0,0,0,0,0,0,0,0,0,0,0,0,0,0,0,0,0,0,0,0,0,0,0,0,0,0,0,0,0,0,0,0,0,0,0,0,0,0,0,0,0,0,0,0,0,0,0,0,0,0],"id":10,"left_children":[1,3,5,7,9,11,13,15,17,19,21,23,25,27,29,31,33,35,37,39,41,43,45,47,49,51,53,55,57,59,61,-1,63,65,67,69,71,73,75,77,-1,79,81,83,85,87,-1,89,91,93,-1,95,97,99,101,-1,103,105,-1,107,-1,-1,-1,-1,-1,-1,-1,-1,-1,-1,-1,-1,-1,-1,-1,-1,-1,-1,-1,-1,-1,-1,-1,-1,-1,-1,-1,-1,-1,-1,-1,-1,-1,-1,-1,-1,-1,-1,-1,-1,-1,-1,-1,-1,-1,-1,-1,-1,-1],"loss_changes":[2.11051E4,3.8960322E3,2.3187158E4,4.8482812E2,3.7429253E3,2.8736016E3,3.9607292E3,1.0425E2,5.7976807E1,4.979585E2,2.417797E3,2.2657798E3,4.33484E3,4.1946455E3,6.033638E2,3.6996094E1,4.223633E0,9.375244E0,3.513794E-1,1.6109192E1,5.968264E2,2.1966199E2,1.5528833E2,8.9533453E2,4.35771E2,4.4061445E3,2.828748E3,1.9411606E3,2.1057502E3,2.8192578E2,2.4209473E1,0E0,1.936914E1,1.7561035E0,1.661499E1,1.2236633E0,3.2774902E1,5.287018E-1,2.0055542E0,1.2251099E1,0E0,7.537832E2,5.818301E2,9.7093094E1,4.6285962E2,2.2158813E2,0E0,3.6446637E2,4.7338287E2,1.15299194E2,0E0,7.920166E0,8.2786914E2,1.9027686E3,9.343549E2,0E0,6.979863E2,2.2289517E3,0E0,1.0219214E2,0E0,0E0,0E0,0E0,0E0,0E0,0E0,0E0,0E0,0E0,0E0,0E0,0E0,0E0,0E0,0E0,0E0,0E0,0E0,0E0,0E0,0E0,0E0,0E0,0E0,0E0,0E0,0E0,0E0,0E0,0E0,0E0,0E0,0E0,0E0,0E0,0E0,0E0,0E0,0E0,0E0,0E0,0E0,0E0,0E0,0E0,0E0,0E0,0E0],"parents":[2147483647,0,0,1,1,2,2,3,3,4,4,5,5,6,6,7,7,8,8,9,9,10,10,11,11,12,12,13,13,14,14,15,15,16,16,17,17,18,18,19,19,20,20,21,21,22,22,23,23,24,24,25,25,26,26,27,27,28,28,29,29,30,30,32,32,33,33,34,34,35,35,36,36,37,37,38,38,39,39,41,41,42,42,43,43,44,44,45,45,47,47,48,48,49,49,51,51,52,52,53,53,54,54,56,56,57,57,59,59],"right_children":[2,4,6,8,10,12,14,16,18,20,22,24,26,28,30,32,34,36,38,40,42,44,46,48,50,52,54,56,58,60,62,-1,64,66,68,70,72,74,76,78,-1,80,82,84,86,88,-1,90,92,94,-1,96,98,100,102,-1,104,106,-1,108,-1,-1,-1,-1,-1,-1,-1,-1,-1,-1,-1,-1,-1,-1,-1,-1,-1,-1,-1,-1,-1,-1,-1,-1,-1,-1,-1,-1,-1,-1,-1,-1,-1,-1,-1,-1,-1,-1,-1,-1,-1,-1,-1,-1,-1,-1,-1,-1,-1],"split_conditions":[-1.4932762E2,-1.2529543E3,1.0050381E2,-1.4892767E3,-2.2426994E-1,-9.5583814E-1,2.3283727E0,-1.582914E3,-1.3688861E3,-3.522541E2,-5.127749E2,-1.3760566E1,2.1660065E1,1.449396E2,2.7579253E0,-1.6631743E3,-1.5338658E3,-1.4625232E3,-1.3332148E3,-3.831948E-2,1.4913684E0,-8.5611115E2,-1.6716539E2,-1.9621286E0,-6.625458E0,-6.2424774E1,1.7235235E0,7.848546E-1,1.9514829E0,1.5629586E0,9.862496E-1,1.5233105E0,-1.5918317E3,-1.5427837E3,-1.524948E3,-1.4848179E3,-1.4580643E3,-2.1574748E0,-1.324297E3,1.7697945E0,8.8564456E-1,-1.8727432E2,-3.0766495E2,7.346313E-1,-6.2870667E2,-4.5035016E2,-1.8617316E0,0E0,-1.02554985E2,-1.5239778E-2,-4.3793077E0,-1.4626971E2,1.14670925E1,7.848546E-1,9.019175E1,-5.075586E0,1.1522042E0,4.5358722E2,4.8057165E0,6.516093E-1,6.2728686E0,5.7181787E0,1.5058869E0,1.0538423E0,1.2808374E0,9.491759E-1,1.1495467E0,7.211845E-1,9.314581E-1,7.1412486E-1,5.400858E-1,9.7339916E-1,7.175536E-1,1.4773865E-1,5.9988046E-1,4.433995E-1,5.5521584E-1,3.9722168E0,1.0131454E0,2.9281158E0,8.031583E-1,6.2391484E-1,-2.2587152E0,2.4222578E-1,-4.4372797E-1,-8.406381E-1,9.659961E-1,-1.8106474E0,-9.177651E-1,1.3279065E0,6.17876E0,5.8805317E-1,-8.003317E-1,-2.2275057E0,-5.255408E-1,-2.2015238E0,-1.3738638E0,-3.859265E0,-2.5027225E0,-4.5783978E0,-1.5518678E0,2.3353226E-1,-2.1534858E0,-1.7422695E0,-2.0018324E-1,1.37916E-1,1.3576497E0,2.3194385E0,4.6617128E-2],"split_indices":[11,11,11,11,10,10,10,11,11,11,11,11,11,11,10,11,11,11,11,3,7,11,11,10,11,11,10,10,10,4,3,0,11,11,11,11,11,4,11,2,0,11,11,6,11,11,0,9,11,8,0,11,11,10,11,0,10,11,0,8,0,0,0,0,0,0,0,0,0,0,0,0,0,0,0,0,0,0,0,0,0,0,0,0,0,0,0,0,0,0,0,0,0,0,0,0,0,0,0,0,0,0,0,0,0,0,0,0,0],"split_type":[0,0,0,0,0,0,0,0,0,0,0,0,0,0,0,0,0,0,0,0,0,0,0,0,0,0,0,0,0,0,0,0,0,0,0,0,0,0,0,0,0,0,0,0,0,0,0,0,0,0,0,0,0,0,0,0,0,0,0,0,0,0,0,0,0,0,0,0,0,0,0,0,0,0,0,0,0,0,0,0,0,0,0,0,0,0,0,0,0,0,0,0,0,0,0,0,0,0,0,0,0,0,0,0,0,0,0,0,0],"sum_hessian":[4.232E3,2.464E3,1.768E3,1.54E3,9.24E2,1.04E3,7.28E2,8.37E2,7.03E2,3.51E2,5.73E2,1.26E2,9.14E2,6.95E2,3.3E1,3.31E2,5.06E2,4.98E2,2.05E2,6E0,3.45E2,3.62E2,2.11E2,9.9E1,2.7E1,3.84E2,5.3E2,1.17E2,5.78E2,2.2E1,1.1E1,3E1,3.01E2,2.39E2,2.67E2,6.9E1,4.29E2,6.4E1,1.41E2,5E0,1E0,3.21E2,2.4E1,2.95E2,6.7E1,1.83E2,2.8E1,6E0,9.3E1,1.8E1,9E0,1.56E2,2.28E2,4.03E2,1.27E2,1E1,1.07E2,5.68E2,1E1,2.1E1,1E0,1E1,1E0,2.24E2,7.7E1,2.08E2,3.1E1,6.8E1,1.99E2,2.2E1,4.7E1,6.2E1,3.67E2,1E0,6.3E1,6.1E1,8E1,4E0,1E0,1.5E1,3.06E2,1.4E1,1E1,2.76E2,1.9E1,5.1E1,1.6E1,3.1E1,1.52E2,4E0,2E0,5.9E1,3.4E1,1.2E1,6E0,3E0,1.53E2,1.63E2,6.5E1,1.9E1,3.84E2,1.11E2,1.6E1,4.6E1,6.1E1,3.49E2,2.19E2,1.9E1,2E0],"tree_param":{"num_deleted":"0","num_feature":"12","num_nodes":"109","size_leaf_vector":"1"}},{"base_weights":[1.8066587E-2,1.4083341E0,-1.756403E0,2.0694957E0,3.2125658E-1,-3.5178118E0,1.5591825E0,2.4800167E0,1.7175993E0,2.704433E0,-5.55719E-1,-3.754952E0,8.406717E0,1.1438956E0,6.951102E0,3.2287648E0,2.3659847E0,1.869814E0,1.4277455E0,7.0152626E0,2.388672E0,1.438074E-1,-3.1686544E0,-5.132769E-1,-4.427728E0,4.109357E0,1.2361631E1,-4.0163213E-1,2.8704236E0,4.720136E0,1.4510565E1,1.2160875E0,8.957363E-1,2.4969153E0,2.2033663E0,5.9953034E-1,1.8076283E0,1.3789423E0,6.4312935E-1,7.344084E0,3.1244203E-1,3.494144E0,1.8526198E0,-2.8504493E-2,8.934565E0,-2.898083E0,-5.2121716E0,4.454338E-1,-6.623846E0,-5.5191493E0,-2.3898084E0,1.2256823E0,2.180809E0,-1.1844395E0,1.42032585E1,-9.116056E0,3.086995E-1,3.0031204E0,-5.202418E0,1.5291428E1,3.3376272E0,5.0126324E0,3.8118184E0,6.836625E-1,8.164314E-1,6.2530875E-1,8.477748E-1,3.968805E-1,5.617394E-1,4.4253936E-1,3.1252795E-1,6.12442E-1,2.2731068E0,9.079042E-1,1.1672611E0,6.505646E-2,5.855908E-1,1.7189032E-1,-4.3988177E-1,3.1700704E0,-8.634705E-1,-4.3781522E-1,-9.0723103E-1,-3.4450405E0,-1.0092039E0,1.45374E0,8.734112E-2,-1.2458614E0,-3.196894E0,-1.0597558E0,-1.887446E0,-1.3578773E0,-7.5570986E-2,4.4193424E-2,6.801676E-1,4.702646E0,-7.785187E-2,-2.3216577E0,-6.118742E0,-2.578046E-1,1.2226249E0,4.3701562E-1,1.2758136E0,3.880829E-1,5.857849E0,-6.364988E-1,1.3749746E0,-6.9679415E-1,2.4121125E0],"categories":[],"categories_nodes":[],"categories_segments":[],"categories_sizes":[],"default_left":[0,0,0,0,0,0,0,0,0,0,0,0,0,0,0,0,0,0,0,0,0,0,0,0,0,0,0,0,0,0,0,0,0,0,0,0,0,0,0,0,0,0,0,0,0,0,0,0,0,0,0,0,0,0,0,0,0,0,0,0,0,0,0,0,0,0,0,0,0,0,0,0,0,0,0,0,0,0,0,0,0,0,0,0,0,0,0,0,0,0,0,0,0,0,0,0,0,0,0,0,0,0,0,0,0,0,0,0,0],"id":11,"left_children":[1,3,5,7,9,11,13,15,17,19,21,23,25,27,29,31,33,35,37,39,41,43,45,47,49,51,53,55,57,59,61,-1,-1,63,65,-1,67,69,-1,71,-1,73,75,77,79,81,83,85,87,89,91,93,-1,-1,95,97,99,101,-1,103,105,-1,107,-1,-1,-1,-1,-1,-1,-1,-1,-1,-1,-1,-1,-1,-1,-1,-1,-1,-1,-1,-1,-1,-1,-1,-1,-1,-1,-1,-1,-1,-1,-1,-1,-1,-1,-1,-1,-1,-1,-1,-1,-1,-1,-1,-1,-1,-1],"loss_changes":[1.0445231E4,1.7056094E3,1.0868074E4,2.0896484E2,1.8804017E3,3.4673242E3,1.4385679E3,5.0334473E1,3.253833E1,3.1265112E2,1.2031594E3,2.5973848E3,3.5709827E2,1.6048594E3,7.072937E2,5.333496E0,7.1242676E0,5.4663086E-1,6.793213E0,2.3780212E1,1.2804468E2,7.879256E2,6.1750122E1,1.2097537E3,2.182125E3,1.0955167E2,4.1651416E2,1.971276E3,8.137788E2,4.8971442E2,1.7148999E2,0E0,0E0,9.512695E0,1.4335205E1,0E0,8.867554E0,7.0256653E0,0E0,3.0594482E0,0E0,1.7727051E0,2.4766113E1,4.427414E2,2.2323883E2,1.8249878E1,1.3522473E2,1.2012343E2,2.3474109E2,9.628262E2,1.5792238E3,8.651368E0,0E0,0E0,2.382854E2,2.1498645E2,1.3014155E3,5.406658E2,0E0,2.11849E2,2.4093124E2,0E0,9.649477E1,0E0,0E0,0E0,0E0,0E0,0E0,0E0,0E0,0E0,0E0,0E0,0E0,0E0,0E0,0E0,0E0,0E0,0E0,0E0,0E0,0E0,0E0,0E0,0E0,0E0,0E0,0E0,0E0,0E0,0E0,0E0,0E0,0E0,0E0,0E0,0E0,0E0,0E0,0E0,0E0,0E0,0E0,0E0,0E0,0E0,0E0],"parents":[2147483647,0,0,1,1,2,2,3,3,4,4,5,5,6,6,7,7,8,8,9,9,10,10,11,11,12,12,13,13,14,14,15,15,16,16,17,17,18,18,19,19,20,20,21,21,22,22,23,23,24,24,25,25,26,26,27,27,28,28,29,29,30,30,33,33,34,34,36,36,37,37,39,39,41,41,42,42,43,43,44,44,45,45,46,46,47,47,48,48,49,49,50,50,51,51,54,54,55,55,56,56,57,57,59,59,60,60,62,62],"right_children":[2,4,6,8,10,12,14,16,18,20,22,24,26,28,30,32,34,36,38,40,42,44,46,48,50,52,54,56,58,60,62,-1,-1,64,66,-1,68,70,-1,72,-1,74,76,78,80,82,84,86,88,90,92,94,-1,-1,96,98,100,102,-1,104,106,-1,108,-1,-1,-1,-1,-1,-1,-1,-1,-1,-1,-1,-1,-1,-1,-1,-1,-1,-1,-1,-1,-1,-1,-1,-1,-1,-1,-1,-1,-1,-1,-1,-1,-1,-1,-1,-1,-1,-1,-1,-1,-1,-1,-1,-1,-1,-1],"split_conditions":[-1.6053993E2,-1.3064613E3,1.1721917E2,-1.5160302E3,-9.5583814E-1,2.5339139E0,1.7235235E0,-1.6408798E3,-1.4223931E3,-1.8727432E2,-3.0766495E2,-9.5583814E-1,-8.0316626E-2,4.3320126E2,2.205345E0,-1.6676332E3,-1.5561604E3,-1.4892767E3,-1.324297E3,6.734901E-1,-1.7389758E2,1.7535714E0,1.1130866E0,-1.3760566E1,1.1522042E0,8.276784E1,-9.546208E-1,7.848546E-1,1.8389088E0,-3.0633083E-1,9.9284613E-1,1.2160875E0,8.957363E-1,-1.5918317E3,-1.524948E3,5.9953034E-1,-1.471441E3,-1.3332148E3,6.4312935E-1,-9.24567E-1,3.1244203E-1,3.3469284E-1,-1.6277353E0,-8.5611115E2,1.208746E0,-1.7117164E0,-9.864751E-1,-3.4653628E0,-6.625458E0,-5.417771E1,5.5699852E1,2.5805824E0,2.180809E0,-1.1844395E0,4.2327685E0,5.847532E-1,1.2220545E0,7.848546E-1,-5.202418E0,7.941578E-1,1.9514829E0,5.0126324E0,-4.5924467E-1,6.836625E-1,8.164314E-1,6.2530875E-1,8.477748E-1,3.968805E-1,5.617394E-1,4.4253936E-1,3.1252795E-1,6.12442E-1,2.2731068E0,9.079042E-1,1.1672611E0,6.505646E-2,5.855908E-1,1.7189032E-1,-4.3988177E-1,3.1700704E0,-8.634705E-1,-4.3781522E-1,-9.0723103E-1,-3.4450405E0,-1.0092039E0,1.45374E0,8.734112E-2,-1.2458614E0,-3.196894E0,-1.0597558E0,-1.887446E0,-1.3578773E0,-7.5570986E-2,4.4193424E-2,6.801676E-1,4.702646E0,-7.785187E-2,-2.3216577E0,-6.118742E0,-2.578046E-1,1.2226249E0,4.3701562E-1,1.2758136E0,3.880829E-1,5.857849E0,-6.364988E-1,1.3749746E0,-6.9679415E-1,2.4121125E0],"split_indices":[11,11,11,11,10,7,10,11,11,11,11,10,8,11,7,11,11,11,11,3,11,7,7,11,10,11,3,10,4,4,8,0,0,11,11,0,11,11,0,8,0,3,9,11,8,8,8,10,11,11,11,6,0,0,10,8,2,10,0,2,10,0,3,0,0,0,0,0,0,0,0,0,0,0,0,0,0,0,0,0,0,0,0,0,0,0,0,0,0,0,0,0,0,0,0,0,0,0,0,0,0,0,0,0,0,0,0,0,0],"split_type":[0,0,0,0,0,0,0,0,0,0,0,0,0,0,0,0,0,0,0,0,0,0,0,0,0,0,0,0,0,0,0,0,0,0,0,0,0,0,0,0,0,0,0,0,0,0,0,0,0,0,0,0,0,0,0,0,0,0,0,0,0,0,0,0,0,0,0,0,0,0,0,0,0,0,0,0,0,0,0,0,0,0,0,0,0,0,0,0,0,0,0,0,0,0,0,0,0,0,0,0,0,0,0,0,0,0,0,0,0],"sum_hessian":[4.232E3,2.373E3,1.859E3,1.475E3,8.98E2,1.214E3,6.45E2,6.78E2,7.97E2,2.41E2,6.57E2,1.191E3,2.3E1,6E2,4.5E1,8.6E1,5.92E2,5.19E2,2.78E2,1.5E1,2.26E2,5.19E2,1.38E2,2.05E2,9.86E2,1.2E1,1.1E1,3.17E2,2.83E2,3.6E1,9E0,1.6E1,7E1,3.2E2,2.72E2,1.59E2,3.6E2,2.63E2,1.5E1,1.4E1,1E0,7.2E1,1.54E2,5.1E2,9E0,1.24E2,1.4E1,1.78E2,2.7E1,6.41E2,3.45E2,7E0,5E0,1E0,1E1,2.3E1,2.94E2,2.82E2,1E0,3E0,3.3E1,7E0,2E0,1.68E2,1.52E2,2.32E2,4E1,4.5E1,3.15E2,2.02E2,6.1E1,1E0,1.3E1,3.7E1,3.5E1,9E0,1.45E2,3.6E2,1.5E2,8E0,1E0,1.1E1,1.13E2,2E0,1.2E1,5E0,1.73E2,1.8E1,9E0,1.81E2,4.6E2,1.72E2,1.73E2,4E0,3E0,9E0,1E0,2.2E1,1E0,2.25E2,6.9E1,1.27E2,1.55E2,1E0,2E0,6E0,2.7E1,1E0,1E0],"tree_param":{"num_deleted":"0","num_feature":"12","num_nodes":"109","size_leaf_vector":"1"}},{"base_weights":[1.5485293E-2,9.901326E-1,-1.2285084E0,1.4205309E0,1.3025835E-1,-2.9370236E0,4.9423373E-1,1.7996094E0,1.20524E0,1.9175751E0,-6.535477E-1,-2.1470277E-1,-3.707056E0,5.1810436E0,3.328763E-2,2.197666E0,1.6701075E0,1.3699249E0,1.0227535E0,5.1105633E0,1.6840713E0,-6.800336E-2,-2.251466E0,4.9903706E-1,-4.7953625E0,-4.9267955E0,-2.4805017E0,3.0683017E0,8.6260195E0,-1.1359959E1,5.1030374E-1,8.7271947E-1,6.2386644E-1,1.4112616E0,1.7620082E0,3.2308987E-1,1.4108018E0,1.0905623E0,9.2908585E-1,1.5999702E0,2.6557618E-1,2.474328E0,1.3010209E0,-1.9765627E-1,8.586858E0,-2.367027E0,8.7798566E-1,3.20413E-1,4.8709126E0,-2.9725819E0,-7.779109E0,-2.648773E0,-7.6887207E0,-3.533934E0,-9.4702256E-1,4.5740768E-1,4.1849747E0,1.5635676E1,1.06674194E-1,-1.3383516E1,-1.6428767E0,7.45596E-2,6.506372E0,4.971556E-1,-1.2128662E-1,8.519455E-1,5.074399E-1,7.386022E-1,4.0875947E-1,3.1920996E-1,4.0418452E-1,2.3401527E-1,3.090578E-1,9.106934E-1,6.6157025E-1,4.0633756E-1,-1.7189942E-1,-2.589538E-1,1.988846E-1,8.694275E-1,3.2120156E0,-1.6400799E0,-6.201857E-1,1.4146912E0,-6.6592485E-1,2.243102E-1,-3.5493124E-1,-1.2656504E0,-7.003735E-2,-6.631849E-1,-2.445662E0,-1.3812695E0,-7.4332607E-1,3.78432E-1,-2.342101E0,-6.933169E-1,-2.1214838E0,3.2427154E-2,-1.4073461E0,-3.351858E-1,5.014266E-1,-6.568643E-1,1.3268597E0,1.0537205E0,4.852157E0,-9.980123E-1,1.351735E0,-4.160921E0,-1.412529E0,-1.3807236E0,1.384259E-1,-1.4201051E0,2.6682034E-1,1.1929606E0,3.123882E0],"categories":[],"categories_nodes":[],"categories_segments":[],"categories_sizes":[],"default_left":[0,0,0,0,0,0,0,0,0,0,0,0,0,0,0,0,0,0,0,0,0,0,0,0,0,0,0,0,0,0,0,0,0,0,0,0,0,0,0,0,0,0,0,0,0,0,0,0,0,0,0,0,0,0,0,0,0,0,0,0,0,0,0,0,0,0,0,0,0,0,0,0,0,0,0,0,0,0,0,0,0,0,0,0,0,0,0,0,0,0,0,0,0,0,0,0,0,0,0,0,0,0,0,0,0,0,0,0,0,0,0,0,0,0,0],"id":12,"left_children":[1,3,5,7,9,11,13,15,17,19,21,23,25,27,29,31,33,35,37,39,41,43,45,47,49,51,53,55,57,59,61,-1,-1,63,65,-1,67,69,71,-1,-1,73,75,77,79,81,83,85,-1,87,89,91,93,95,97,99,101,103,105,107,109,111,113,-1,-1,-1,-1,-1,-1,-1,-1,-1,-1,-1,-1,-1,-1,-1,-1,-1,-1,-1,-1,-1,-1,-1,-1,-1,-1,-1,-1,-1,-1,-1,-1,-1,-1,-1,-1,-1,-1,-1,-1,-1,-1,-1,-1,-1,-1,-1,-1,-1,-1,-1,-1],"loss_changes":[5.1335386E3,8.784048E2,5.476048E3,1.2694141E2,1.1121746E3,1.957125E3,2.0024874E3,2.5764404E1,2.901233E1,1.7182257E2,5.1632684E2,6.791587E2,1.0769229E3,5.776355E2,4.5981704E3,5.461731E0,7.861206E0,4.8154907E0,2.060913E0,1.0332367E1,6.549567E1,4.561591E2,5.560132E1,5.007898E2,1.2916003E2,2.2698242E3,5.862803E2,1.5260806E2,1.8495806E3,6.4655664E2,2.1210693E3,0E0,0E0,5.3801956E1,1.9298279E1,0E0,2.0037537E1,4.3933105E-1,2.3607788E0,0E0,0E0,4.3320923E0,1.6298279E1,2.296732E2,4.13273E1,1.215697E2,8.17957E1,1.15880325E2,0E0,6.3874252E1,2.7544556E0,5.581067E1,1.8346582E2,9.1810547E2,5.930793E2,3.4366364E1,6.579236E1,5.410742E1,2.4154675E2,5.2799805E1,4.571781E1,2.974021E3,5.021565E2,0E0,0E0,0E0,0E0,0E0,0E0,0E0,0E0,0E0,0E0,0E0,0E0,0E0,0E0,0E0,0E0,0E0,0E0,0E0,0E0,0E0,0E0,0E0,0E0,0E0,0E0,0E0,0E0,0E0,0E0,0E0,0E0,0E0,0E0,0E0,0E0,0E0,0E0,0E0,0E0,0E0,0E0,0E0,0E0,0E0,0E0,0E0,0E0,0E0,0E0,0E0,0E0],"parents":[2147483647,0,0,1,1,2,2,3,3,4,4,5,5,6,6,7,7,8,8,9,9,10,10,11,11,12,12,13,13,14,14,15,15,16,16,17,17,18,18,19,19,20,20,21,21,22,22,23,23,24,24,25,25,26,26,27,27,28,28,29,29,30,30,33,33,34,34,36,36,37,37,38,38,41,41,42,42,43,43,44,44,45,45,46,46,47,47,49,49,50,50,51,51,52,52,53,53,54,54,55,55,56,56,57,57,58,58,59,59,60,60,61,61,62,62],"right_children":[2,4,6,8,10,12,14,16,18,20,22,24,26,28,30,32,34,36,38,40,42,44,46,48,50,52,54,56,58,60,62,-1,-1,64,66,-1,68,70,72,-1,-1,74,76,78,80,82,84,86,-1,88,90,92,94,96,98,100,102,104,106,108,110,112,114,-1,-1,-1,-1,-1,-1,-1,-1,-1,-1,-1,-1,-1,-1,-1,-1,-1,-1,-1,-1,-1,-1,-1,-1,-1,-1,-1,-1,-1,-1,-1,-1,-1,-1,-1,-1,-1,-1,-1,-1,-1,-1,-1,-1,-1,-1,-1,-1,-1,-1,-1,-1],"split_conditions":[-1.6053993E2,-1.2395776E3,6.625431E1,-1.5338658E3,-9.5583814E-1,-9.5583814E-1,7.72183E1,-1.6185852E3,-1.4357698E3,-1.8727432E2,-3.295537E2,-1.3760566E1,1.6563578E1,1.4603796E0,8.276784E1,-1.6676332E3,-1.5918317E3,-1.524948E3,-1.3421326E3,6.734901E-1,-1.7389758E2,1.7535714E0,2.746241E0,1.4913684E0,-6.625458E0,-4.4589123E1,1.4603796E0,7.5173164E1,2.151349E0,2.205345E0,2.151349E0,8.7271947E-1,6.2386644E-1,-1.5962906E3,-1.5873728E3,3.2308987E-1,-1.5204891E3,-1.3555094E3,-1.324297E3,1.5999702E0,2.6557618E-1,4.9821556E-2,1.5534315E0,1.1130866E0,-7.165589E-1,-2.2426994E-1,-8.0891246E-1,-1.02554985E2,4.8709126E0,-1.5239778E-2,-1.6608996E0,-1.4626971E2,-2.2426994E-1,5.0671757E1,2.151349E0,-4.5924467E-1,1.4928018E-1,-2.0016887E0,7.262492E1,9.133535E-1,2.4884746E0,1.1363481E2,2.7579253E0,4.971556E-1,-1.2128662E-1,8.519455E-1,5.074399E-1,7.386022E-1,4.0875947E-1,3.1920996E-1,4.0418452E-1,2.3401527E-1,3.090578E-1,9.106934E-1,6.6157025E-1,4.0633756E-1,-1.7189942E-1,-2.589538E-1,1.988846E-1,8.694275E-1,3.2120156E0,-1.6400799E0,-6.201857E-1,1.4146912E0,-6.6592485E-1,2.243102E-1,-3.5493124E-1,-1.2656504E0,-7.003735E-2,-6.631849E-1,-2.445662E0,-1.3812695E0,-7.4332607E-1,3.78432E-1,-2.342101E0,-6.933169E-1,-2.1214838E0,3.2427154E-2,-1.4073461E0,-3.351858E-1,5.014266E-1,-6.568643E-1,1.3268597E0,1.0537205E0,4.852157E0,-9.980123E-1,1.351735E0,-4.160921E0,-1.412529E0,-1.3807236E0,1.384259E-1,-1.4201051E0,2.6682034E-1,1.1929606E0,3.123882E0],"split_indices":[11,11,11,11,10,10,11,11,11,11,11,11,11,10,11,11,11,11,11,3,11,7,7,7,11,11,10,11,10,7,10,0,0,11,11,0,11,11,11,0,0,2,3,7,6,10,8,11,0,8,8,11,10,11,10,3,6,8,11,8,7,11,10,0,0,0,0,0,0,0,0,0,0,0,0,0,0,0,0,0,0,0,0,0,0,0,0,0,0,0,0,0,0,0,0,0,0,0,0,0,0,0,0,0,0,0,0,0,0,0,0,0,0,0,0],"split_type":[0,0,0,0,0,0,0,0,0,0,0,0,0,0,0,0,0,0,0,0,0,0,0,0,0,0,0,0,0,0,0,0,0,0,0,0,0,0,0,0,0,0,0,0,0,0,0,0,0,0,0,0,0,0,0,0,0,0,0,0,0,0,0,0,0,0,0,0,0,0,0,0,0,0,0,0,0,0,0,0,0,0,0,0,0,0,0,0,0,0,0,0,0,0,0,0,0,0,0,0,0,0,0,0,0,0,0,0,0,0,0,0,0,0,0],"sum_hessian":[4.232E3,2.373E3,1.859E3,1.581E3,7.92E2,9.33E2,9.26E2,5.7E2,1.011E3,2.41E2,5.51E2,2.06E2,7.27E2,8.2E1,8.44E2,1.36E2,4.34E2,5.28E2,4.83E2,1.5E1,2.26E2,4.04E2,1.47E2,1.79E2,2.7E1,3.63E2,3.64E2,5.2E1,3E1,3.3E1,8.11E2,1.6E1,1.2E2,1.18E2,3.16E2,6.8E1,4.6E2,2.74E2,2.09E2,1.4E1,1E0,7.2E1,1.54E2,3.99E2,5E0,1.42E2,5E0,1.78E2,1E0,1.8E1,9E0,2E2,1.63E2,2.15E2,1.49E2,1.6E1,3.6E1,1.6E1,1.4E1,2.7E1,6E0,7.57E2,5.4E1,1.04E2,1.4E1,1.7E1,2.99E2,1.8E1,4.42E2,2.53E2,2.1E1,8.8E1,1.21E2,2E1,5.2E1,1.5E2,4E0,2.25E2,1.74E2,2E0,3E0,1.1E1,1.31E2,2E0,3E0,1.39E2,3.9E1,1.2E1,6E0,1E0,8E0,1.4E1,1.86E2,2E0,1.61E2,1.61E2,5.4E1,1.17E2,3.2E1,7E0,9E0,1E0,3.5E1,1E0,1.5E1,8E0,6E0,2.5E1,2E0,2E0,4E0,1.09E2,6.48E2,3.4E1,2E1],"tree_param":{"num_deleted":"0","num_feature":"12","num_nodes":"115","size_leaf_vector":"1"}},{"base_weights":[1.2638946E-2,9.4576144E-1,-6.3711244E-1,1.1541667E0,6.8226737E-1,-1.0823935E0,1.2114289E0,1.3758559E0,1.0369958E0,7.456421E-1,2.7379254E-1,6.4082617E-1,-1.6242024E0,1.8750794E0,-2.0730374E0,6.263069E-1,1.333207E0,1.0029687E0,3.9949226E-1,8.1868696E-1,6.64104E-1,-2.3783569E-1,3.5511813E-1,8.996011E-1,-3.432437E0,-1.7717438E0,4.732755E0,1.4836642E0,7.0782385E0,-7.118753E0,-2.1928705E-1,1.2330326E0,1.6230594E0,1.0557699E0,4.0016046E-1,7.862206E-1,2.9102206E-1,6.7477745E-1,9.044974E-2,-2.7694485E-1,4.645386E-2,4.8180884E-1,-1.8635431E-2,7.311794E0,7.9740256E-1,-2.0989032E0,-5.7562613E0,-2.2139735E0,-6.210911E-1,6.30143E-1,7.4378233E0,2.0385098E-1,2.7027407E0,-8.2368976E-1,8.8318615E0,-1.8848461E0,-1.1323272E1,2.7284443E-1,-4.4620767E0,3.9874834E-1,-8.7329105E-2,6.105571E-1,4.4245186E-1,2.5366896E-1,3.2137066E-1,4.1078947E-2,1.9105665E-1,2.4860443E-1,6.025042E-2,1.4463429E-1,2.0963155E-1,-2.3538819E-1,1.7922181E-1,-3.2576498E-2,-1.4499664E-1,-3.2421342E-1,1.5637802E-1,-5.5764336E-2,2.59219E-1,3.5775445E0,2.6114732E-1,2.1117568E0,2.09024E-1,-3.2113433E-1,-1.2960674E0,-2.2445035E0,-1.1843958E0,-3.3985537E-1,-9.778665E-1,-7.3367137E-1,1.8961951E-1,5.1640934E-1,-2.1970437E0,1.4481987E0,4.447782E0,-4.8317455E-2,9.6672136E-1,9.6813715E-1,-1.2697136E0,-1.1224641E0,1.0024048E0,2.1089067E0,4.690428E0,-1.5797478E0,9.676483E-1,-4.7513375E0,4.9956438E-1,-5.7713574E-1,4.785611E-1],"categories":[],"categories_nodes":[],"categories_segments":[],"categories_sizes":[],"default_left":[0,0,0,0,0,0,0,0,0,0,0,0,0,0,0,0,0,0,0,0,0,0,0,0,0,0,0,0,0,0,0,0,0,0,0,0,0,0,0,0,0,0,0,0,0,0,0,0,0,0,0,0,0,0,0,0,0,0,0,0,0,0,0,0,0,0,0,0,0,0,0,0,0,0,0,0,0,0,0,0,0,0,0,0,0,0,0,0,0,0,0,0,0,0,0,0,0,0,0,0,0,0,0,0,0,0,0,0,0],"id":13,"left_children":[1,3,5,7,9,11,13,15,17,19,21,23,25,27,29,-1,31,33,-1,35,37,39,41,43,45,47,49,51,53,55,57,59,61,63,65,67,-1,69,71,73,-1,75,77,79,81,83,85,87,89,91,93,95,97,99,101,103,105,107,-1,-1,-1,-1,-1,-1,-1,-1,-1,-1,-1,-1,-1,-1,-1,-1,-1,-1,-1,-1,-1,-1,-1,-1,-1,-1,-1,-1,-1,-1,-1,-1,-1,-1,-1,-1,-1,-1,-1,-1,-1,-1,-1,-1,-1,-1,-1,-1,-1,-1,-1],"loss_changes":[2.5670603E3,9.46521E1,2.0558198E3,2.3743652E1,1.9728851E1,1.8795564E3,1.0610598E3,7.2958374E0,5.060974E0,3.422943E0,4.45335E0,5.1114392E2,1.444331E3,8.1228284E2,7.654259E2,0E0,7.174011E0,1.791095E1,0E0,9.427948E-1,1.8983002E0,2.732457E-1,4.3179283E0,2.9168335E2,7.7786224E1,7.603779E2,3.837376E2,5.876408E2,3.9527087E2,4.6279053E2,4.4398062E2,3.540335E1,1.7631226E0,8.140259E-1,2.9034534E0,7.0666504E0,0E0,1.114685E0,3.5741215E0,4.3394637E-1,0E0,4.7550783E0,3.7036743E0,1.9763132E2,2.7656158E2,4.1066017E1,1.6627502E0,1.218271E3,9.5495715E2,1.4279381E2,3.3344983E2,2.042961E2,7.1553345E2,8.541975E1,1.7207239E2,2.0704239E2,7.3001465E2,1.7735287E2,0E0,0E0,0E0,0E0,0E0,0E0,0E0,0E0,0E0,0E0,0E0,0E0,0E0,0E0,0E0,0E0,0E0,0E0,0E0,0E0,0E0,0E0,0E0,0E0,0E0,0E0,0E0,0E0,0E0,0E0,0E0,0E0,0E0,0E0,0E0,0E0,0E0,0E0,0E0,0E0,0E0,0E0,0E0,0E0,0E0,0E0,0E0,0E0,0E0,0E0,0E0],"parents":[2147483647,0,0,1,1,2,2,3,3,4,4,5,5,6,6,7,7,8,8,9,9,10,10,11,11,12,12,13,13,14,14,16,16,17,17,19,19,20,20,21,21,22,22,23,23,24,24,25,25,26,26,27,27,28,28,29,29,30,30,31,31,32,32,33,33,34,34,35,35,37,37,38,38,39,39,41,41,42,42,43,43,44,44,45,45,46,46,47,47,48,48,49,49,50,50,51,51,52,52,53,53,54,54,55,55,56,56,57,57],"right_children":[2,4,6,8,10,12,14,16,18,20,22,24,26,28,30,-1,32,34,-1,36,38,40,42,44,46,48,50,52,54,56,58,60,62,64,66,68,-1,70,72,74,-1,76,78,80,82,84,86,88,90,92,94,96,98,100,102,104,106,108,-1,-1,-1,-1,-1,-1,-1,-1,-1,-1,-1,-1,-1,-1,-1,-1,-1,-1,-1,-1,-1,-1,-1,-1,-1,-1,-1,-1,-1,-1,-1,-1,-1,-1,-1,-1,-1,-1,-1,-1,-1,-1,-1,-1,-1,-1,-1,-1,-1,-1,-1],"split_conditions":[-1.0567622E3,-1.4580643E3,2.076818E2,-1.582914E3,-1.172694E3,-2.2426994E-1,8.656224E-1,-1.6676332E3,-1.4625232E3,-1.3822628E3,-1.1459404E3,-1.3760566E1,2.7579253E0,1.4603796E0,1.0293913E0,6.263069E-1,-1.5918317E3,-1.4848179E3,3.9949226E-1,-1.3911807E3,1.8389088E0,1.7364475E0,7.941578E-1,-1.9621286E0,-6.625458E0,1.1522042E0,8.276784E1,4.5358722E2,-1.5228789E0,5.246925E-1,1.7364475E0,-1.5962906E3,-1.5873728E3,-1.5739961E3,-1.471441E3,-1.4045574E3,2.9102206E-1,-1.3555094E3,-4.5924467E-1,1.1130866E0,4.645386E-2,-2.1574748E0,-1.0790568E3,4.9821556E-2,-3.522541E2,1.9863821E0,4.9821556E-2,-6.2424774E1,5.5699852E1,1.903398E0,2.8711476E0,1.8802738E0,1.9351354E0,-7.634827E-2,1.7604246E0,4.2683066E2,9.2537427E2,3.745917E2,-4.4620767E0,3.9874834E-1,-8.7329105E-2,6.105571E-1,4.4245186E-1,2.5366896E-1,3.2137066E-1,4.1078947E-2,1.9105665E-1,2.4860443E-1,6.025042E-2,1.4463429E-1,2.0963155E-1,-2.3538819E-1,1.7922181E-1,-3.2576498E-2,-1.4499664E-1,-3.2421342E-1,1.5637802E-1,-5.5764336E-2,2.59219E-1,3.5775445E0,2.6114732E-1,2.1117568E0,2.09024E-1,-3.2113433E-1,-1.2960674E0,-2.2445035E0,-1.1843958E0,-3.3985537E-1,-9.778665E-1,-7.3367137E-1,1.8961951E-1,5.1640934E-1,-2.1970437E0,1.4481987E0,4.447782E0,-4.8317455E-2,9.6672136E-1,9.6813715E-1,-1.2697136E0,-1.1224641E0,1.0024048E0,2.1089067E0,4.690428E0,-1.5797478E0,9.676483E-1,-4.7513375E0,4.9956438E-1,-5.7713574E-1,4.785611E-1],"split_indices":[11,11,11,11,11,10,8,11,11,11,11,11,10,10,8,0,11,11,0,11,4,4,2,10,11,10,11,11,8,7,4,11,11,11,11,11,0,11,3,7,0,4,11,2,11,1,2,11,11,2,6,2,2,9,6,11,11,11,0,0,0,0,0,0,0,0,0,0,0,0,0,0,0,0,0,0,0,0,0,0,0,0,0,0,0,0,0,0,0,0,0,0,0,0,0,0,0,0,0,0,0,0,0,0,0,0,0,0,0],"split_type":[0,0,0,0,0,0,0,0,0,0,0,0,0,0,0,0,0,0,0,0,0,0,0,0,0,0,0,0,0,0,0,0,0,0,0,0,0,0,0,0,0,0,0,0,0,0,0,0,0,0,0,0,0,0,0,0,0,0,0,0,0,0,0,0,0,0,0,0,0,0,0,0,0,0,0,0,0,0,0,0,0,0,0,0,0,0,0,0,0,0,0,0,0,0,0,0,0,0,0,0,0,0,0,0,0,0,0,0,0],"sum_hessian":[4.232E3,1.737E3,2.495E3,9.68E2,7.69E2,2.011E3,4.84E2,3.31E2,6.37E2,6.65E2,1.04E2,4.81E2,1.53E3,4.03E2,8.1E1,1.6E1,3.15E2,5.75E2,6.2E1,3.46E2,3.19E2,1.4E1,9E1,4.53E2,2.8E1,1.496E3,3.4E1,3.76E2,2.7E1,2.1E1,6E1,2.38E2,7.7E1,5.28E2,4.7E1,2.9E2,5.6E1,3.13E2,6E0,1.3E1,1E0,6.7E1,2.3E1,6E0,4.47E2,1.9E1,9E0,1.08E3,4.16E2,1.4E1,2E1,1.84E2,1.92E2,5E0,2.2E1,1E1,1.1E1,5.9E1,1E0,2.24E2,1.4E1,1.7E1,6E1,4E1,4.88E2,2.3E1,2.4E1,2.7E2,2E1,3.7E1,2.76E2,2E0,4E0,8E0,5E0,1E0,6.6E1,2E1,3E0,3E0,3E0,6E0,4.41E2,1.4E1,5E0,3E0,6E0,5.32E2,5.48E2,1.69E2,2.47E2,1.3E1,1E0,1.6E1,4E0,1.65E2,1.9E1,1.79E2,1.3E1,3E0,2E0,1.9E1,3E0,6E0,4E0,8E0,3E0,2.2E1,3.7E1],"tree_param":{"num_deleted":"0","num_feature":"12","num_nodes":"109","size_leaf_vector":"1"}},{"base_weights":[1.0109547E-2,5.194457E-1,-6.3316756E-1,6.94361E-1,1.2721148E-1,-1.618686E0,2.6835254E-1,9.1930974E-1,5.897162E-1,1.2171605E0,-3.7659937E-1,-2.0626935E-1,-2.127874E0,-1.9489942E0,7.240527E-1,1.1268777E0,8.422596E-1,-4.7492605E-2,6.055727E-1,3.4980354E0,1.0425718E0,-3.352439E-2,-1.5786052E0,-5.002845E-1,1.0658463E0,-3.0113175E0,-1.1532484E0,-8.164366E0,1.7987909E0,4.2106652E-1,6.5611596E0,4.4946578E-1,1.0653926E0,1.5756434E-1,9.058125E-1,5.1829624E-1,5.873327E-1,3.7622702E0,3.2967836E-1,1.4965086E0,7.3660886E-1,-1.6219477E-1,3.1940482E0,-7.5139647E0,-1.2864985E0,-2.870819E0,-3.9619595E-1,3.0293946E0,-4.8556945E-1,5.6666436E0,-3.1821291E0,-6.6785485E-1,-3.6432614E0,-9.981558E0,-3.7583258E0,5.25151E-2,3.577639E0,3.1438487E0,-1.19083904E-1,1.3168597E0,2.3065665E0,2.9699072E-1,3.9869425E-1,4.774083E-1,2.5623465E-1,1.9750844E-1,1.444432E-1,2.4922945E-1,1.1771598E0,3.7153894E-1,5.327193E-1,4.881999E-3,3.3021882E-1,-1.6687165E-1,1.2283642E-1,1.7647873E0,3.7844926E-1,-3.5161164E0,-2.408661E-1,-6.746956E-1,-2.849361E-1,-3.446581E-1,-2.2386796E0,7.3148473E-4,-3.658933E-1,-1.5880668E-1,2.5301068E0,-5.569351E-1,-6.781311E-2,4.1959718E-1,3.2673218E0,-9.085807E-1,-3.3517568E0,-4.7757453E-1,2.0149428E-2,-2.1301675E0,-9.2137404E-2,-2.485251E0,-4.477279E0,-2.1755984E0,1.6806698E0,-8.378058E-1,7.804723E-1,8.1277066E-1,2.227696E0,3.108797E-1,1.5511922E0,-2.9191704E0,4.684676E-2],"categories":[],"categories_nodes":[],"categories_segments":[],"categories_sizes":[],"default_left":[0,0,0,0,0,0,0,0,0,0,0,0,0,0,0,0,0,0,0,0,0,0,0,0,0,0,0,0,0,0,0,0,0,0,0,0,0,0,0,0,0,0,0,0,0,0,0,0,0,0,0,0,0,0,0,0,0,0,0,0,0,0,0,0,0,0,0,0,0,0,0,0,0,0,0,0,0,0,0,0,0,0,0,0,0,0,0,0,0,0,0,0,0,0,0,0,0,0,0,0,0,0,0,0,0,0,0,0,0],"id":14,"left_children":[1,3,5,7,9,11,13,15,17,19,21,23,25,27,29,31,33,-1,35,37,39,41,43,45,47,49,51,53,55,57,59,-1,61,-1,63,-1,65,67,-1,69,71,73,75,77,79,81,83,85,87,89,91,93,95,97,99,101,103,105,107,-1,-1,-1,-1,-1,-1,-1,-1,-1,-1,-1,-1,-1,-1,-1,-1,-1,-1,-1,-1,-1,-1,-1,-1,-1,-1,-1,-1,-1,-1,-1,-1,-1,-1,-1,-1,-1,-1,-1,-1,-1,-1,-1,-1,-1,-1,-1,-1,-1,-1],"loss_changes":[1.3872472E3,1.620318E2,1.6627518E3,3.7921753E1,4.013219E2,6.4251294E2,9.8962665E2,7.3193054E0,1.3356537E1,8.834073E1,2.0613614E2,8.9550285E1,5.6222144E2,3.9047634E3,1.4333103E3,1.5317688E0,7.2010803E0,0E0,2.1396393E1,6.008377E0,2.8897446E1,1.6248232E2,1.8278036E2,4.673122E1,1.3855357E2,5.279426E2,3.770787E2,4.6690332E2,3.2597992E2,1.1372346E3,6.418225E1,0E0,1.08992E0,0E0,9.840118E0,0E0,7.795746E0,3.3722382E0,0E0,3.9972992E0,3.434194E1,8.492365E1,7.051622E1,1.3173798E2,3.2540558E1,5.467714E1,6.1386604E1,3.891151E2,8.83061E0,1.408517E2,3.8080127E2,1.7941634E2,5.8605396E2,2.4551172E2,6.946811E2,3.9890497E2,1.5364685E2,5.4141064E2,1.7104883E3,0E0,0E0,0E0,0E0,0E0,0E0,0E0,0E0,0E0,0E0,0E0,0E0,0E0,0E0,0E0,0E0,0E0,0E0,0E0,0E0,0E0,0E0,0E0,0E0,0E0,0E0,0E0,0E0,0E0,0E0,0E0,0E0,0E0,0E0,0E0,0E0,0E0,0E0,0E0,0E0,0E0,0E0,0E0,0E0,0E0,0E0,0E0,0E0,0E0,0E0],"parents":[2147483647,0,0,1,1,2,2,3,3,4,4,5,5,6,6,7,7,8,8,9,9,10,10,11,11,12,12,13,13,14,14,15,15,16,16,18,18,19,19,20,20,21,21,22,22,23,23,24,24,25,25,26,26,27,27,28,28,29,29,30,30,32,32,34,34,36,36,37,37,39,39,40,40,41,41,42,42,43,43,44,44,45,45,46,46,47,47,48,48,49,49,50,50,51,51,52,52,53,53,54,54,55,55,56,56,57,57,58,58],"right_children":[2,4,6,8,10,12,14,16,18,20,22,24,26,28,30,32,34,-1,36,38,40,42,44,46,48,50,52,54,56,58,60,-1,62,-1,64,-1,66,68,-1,70,72,74,76,78,80,82,84,86,88,90,92,94,96,98,100,102,104,106,108,-1,-1,-1,-1,-1,-1,-1,-1,-1,-1,-1,-1,-1,-1,-1,-1,-1,-1,-1,-1,-1,-1,-1,-1,-1,-1,-1,-1,-1,-1,-1,-1,-1,-1,-1,-1,-1,-1,-1,-1,-1,-1,-1,-1,-1,-1,-1,-1,-1,-1],"split_conditions":[-1.6104959E2,-1.172694E3,5.8929543E1,-1.5472426E3,-9.5583814E-1,-9.809607E1,7.848546E-1,-1.6185852E3,-1.5427837E3,-1.8727432E2,-2.6307584E2,5.086971E-1,1.6563578E1,8.423278E2,4.7142493E2,-1.6676332E3,-1.6096674E3,-4.7492605E-2,-1.5383247E3,-3.831948E-2,-1.722619E2,1.7535714E0,-2.2426994E-1,-7.165589E-1,-9.5583814E-1,-1.9621286E0,5.0671757E1,1.0225836E0,9.8765906E2,7.72183E1,4.7397318E2,4.4946578E-1,-1.6319619E3,1.5756434E-1,-1.6052085E3,5.1829624E-1,-1.4223931E3,-9.24567E-1,3.2967836E-1,3.3469284E-1,-1.6716539E2,1.1130866E0,-3.295537E2,1.4311312E0,-2.54158E2,-1.340381E2,-9.5583814E-1,-1.4168286E2,-1.5238553E2,-1.0662118E-1,2.151349E0,3.2625374E1,1.4603796E0,3.745917E2,7.548845E-1,-8.789163E-2,1.5629586E0,6.880256E1,8.008047E1,1.3168597E0,2.3065665E0,2.9699072E-1,3.9869425E-1,4.774083E-1,2.5623465E-1,1.9750844E-1,1.444432E-1,2.4922945E-1,1.1771598E0,3.7153894E-1,5.327193E-1,4.881999E-3,3.3021882E-1,-1.6687165E-1,1.2283642E-1,1.7647873E0,3.7844926E-1,-3.5161164E0,-2.408661E-1,-6.746956E-1,-2.849361E-1,-3.446581E-1,-2.2386796E0,7.3148473E-4,-3.658933E-1,-1.5880668E-1,2.5301068E0,-5.569351E-1,-6.781311E-2,4.1959718E-1,3.2673218E0,-9.085807E-1,-3.3517568E0,-4.7757453E-1,2.0149428E-2,-2.1301675E0,-9.2137404E-2,-2.485251E0,-4.477279E0,-2.1755984E0,1.6806698E0,-8.378058E-1,7.804723E-1,8.1277066E-1,2.227696E0,3.108797E-1,1.5511922E0,-2.9191704E0,4.684676E-2],"split_indices":[11,11,11,11,10,11,10,11,11,11,11,9,11,11,11,11,11,0,11,3,11,7,10,6,10,10,11,4,11,11,11,0,11,0,11,0,11,8,0,3,11,7,11,4,11,11,10,11,11,8,10,11,10,11,9,4,4,11,11,0,0,0,0,0,0,0,0,0,0,0,0,0,0,0,0,0,0,0,0,0,0,0,0,0,0,0,0,0,0,0,0,0,0,0,0,0,0,0,0,0,0,0,0,0,0,0,0,0,0],"split_type":[0,0,0,0,0,0,0,0,0,0,0,0,0,0,0,0,0,0,0,0,0,0,0,0,0,0,0,0,0,0,0,0,0,0,0,0,0,0,0,0,0,0,0,0,0,0,0,0,0,0,0,0,0,0,0,0,0,0,0,0,0,0,0,0,0,0,0,0,0,0,0,0,0,0,0,0,0,0,0,0,0,0,0,0,0,0,0,0,0,0,0,0,0,0,0,0,0,0,0,0,0,0,0,0,0,0,0,0,0],"sum_hessian":[4.232E3,2.362E3,1.87E3,1.633E3,7.29E2,8.93E2,9.77E2,5.16E2,1.117E3,2.3E2,4.99E2,2.37E2,6.56E2,1.66E2,8.11E2,1.36E2,3.8E2,2.3E1,1.094E3,1.5E1,2.15E2,3.89E2,1.1E2,1.93E2,4.4E1,3.43E2,3.13E2,6.2E1,1.04E2,7.72E2,3.9E1,1.6E1,1.2E2,6.5E1,3.15E2,1.6E1,1.078E3,1.3E1,2E0,8.5E1,1.3E2,3.75E2,1.4E1,4E0,1.06E2,7E0,1.86E2,1.9E1,2.5E1,6E0,3.37E2,2.63E2,5E1,4.3E1,1.9E1,5.3E1,5.1E1,1.27E2,6.45E2,1.5E1,2.4E1,9.7E1,2.3E1,2E1,2.95E2,6.42E2,4.36E2,1E0,1.2E1,4.7E1,3.8E1,4.4E1,8.6E1,2.22E2,1.53E2,5E0,9E0,2E0,2E0,2.6E1,8E1,6E0,1E0,1.26E2,6E1,1.2E1,7E0,3E0,2.2E1,4E0,2E0,3.32E2,5E0,1.16E2,1.47E2,2.4E1,2.6E1,3.4E1,9E0,1.4E1,5E0,2.5E1,2.8E1,4.3E1,8E0,6.3E1,6.4E1,1.7E1,6.28E2],"tree_param":{"num_deleted":"0","num_feature":"12","num_nodes":"109","size_leaf_vector":"1"}},{"base_weights":[6.3472646E-3,3.7868884E-1,-4.3561932E-1,4.8378745E-1,9.156641E-2,-8.906203E-1,6.296771E-1,6.129819E-1,3.9061657E-1,9.6477157E-1,-2.7599245E-1,-1.0032072E0,3.390611E0,4.0650675E-1,1.11592E1,8.539217E-1,5.730065E-1,4.552328E-1,3.4602195E-1,2.558382E0,8.072564E-1,1.2948506E0,-4.2096788E-1,-7.1987134E-1,-2.2595153E0,2.9176635E-1,5.442614E0,8.8650924E-1,-1.2541777E0,1.3510023E1,6.556707E0,3.225586E-1,2.3929028E-1,5.4621834E-1,7.875629E-1,3.850799E-1,5.273888E-1,3.7743714E-1,2.517733E-1,2.887441E0,3.7708923E-1,1.2043978E0,5.9246856E-1,1.3785665E-1,3.1857796E0,2.3559937E0,-4.9841163E-1,-9.961313E-1,3.685637E0,-9.161034E0,-1.7652881E0,-4.113385E0,2.2675836E0,3.420218E0,1.1230237E1,-1.9260278E0,1.1788784E0,-4.6843567E0,-6.502906E-1,4.388054E0,1.0213623E0,2.5123315E0,-3.797928E-1,1.765787E-1,7.415666E-2,3.8120535E-1,1.7265055E-1,1.4154512E-1,2.7464295E-2,2.2323057E-1,1.2574266E-1,1.0735876E-1,2.436366E-1,9.508021E-2,3.241844E-2,3.7947693E-1,9.8632E-1,2.667773E-1,4.9358866E-1,8.8997416E-2,3.3929208E-1,-3.5357535E-1,4.0272862E-1,-5.1387407E-2,1.2350749E0,1.7099396E0,-1.1070263E-1,3.6876924E-2,-2.7717778E-1,-2.558564E-1,-1.5740638E0,6.60451E-1,2.0521967E0,-3.7567773E0,-1.5465269E0,-1.8681861E0,-3.404801E-1,-1.7659898E0,-2.9070282E-1,8.410141E-1,-2.8700257E-2,1.2759528E0,-1.4860657E0,3.9468637E0,5.289505E-1,3.2420003E-1,-1.267823E0,-3.3273044E-1,4.523884E-1,-2.8173008E0,4.7660828E-1,-6.597843E-1,3.7574506E-1],"categories":[],"categories_nodes":[],"categories_segments":[],"categories_sizes":[],"default_left":[0,0,0,0,0,0,0,0,0,0,0,0,0,0,0,0,0,0,0,0,0,0,0,0,0,0,0,0,0,0,0,0,0,0,0,0,0,0,0,0,0,0,0,0,0,0,0,0,0,0,0,0,0,0,0,0,0,0,0,0,0,0,0,0,0,0,0,0,0,0,0,0,0,0,0,0,0,0,0,0,0,0,0,0,0,0,0,0,0,0,0,0,0,0,0,0,0,0,0,0,0,0,0,0,0,0,0,0,0,0,0,0,0],"id":15,"left_children":[1,3,5,7,9,11,13,15,17,19,21,23,25,27,29,31,33,35,37,39,41,43,45,47,49,51,53,55,57,59,61,-1,-1,63,65,67,69,71,73,75,-1,77,79,81,83,85,87,89,91,93,95,97,99,101,103,105,107,109,111,-1,-1,-1,-1,-1,-1,-1,-1,-1,-1,-1,-1,-1,-1,-1,-1,-1,-1,-1,-1,-1,-1,-1,-1,-1,-1,-1,-1,-1,-1,-1,-1,-1,-1,-1,-1,-1,-1,-1,-1,-1,-1,-1,-1,-1,-1,-1,-1,-1,-1,-1,-1,-1,-1],"loss_changes":[6.967582E2,6.930054E1,9.389611E2,2.000708E1,1.9829506E2,6.5748987E2,1.358393E3,6.281769E0,2.6663666E0,4.387097E1,9.960924E1,4.693048E2,2.2097137E2,4.5468036E2,4.1254517E1,3.6296844E-1,3.0528564E0,1.8065186E0,1.6340942E0,3.2224884E0,1.3617027E1,8.050917E1,8.69825E1,1.3193193E3,8.1268115E2,1.3988406E2,2.0739227E2,3.657268E2,2.620982E2,2.9204468E1,9.591907E1,0E0,0E0,6.722763E0,5.928055E0,5.176136E0,4.215603E0,3.4192047E0,1.361042E0,3.635048E0,0E0,6.5956955E0,1.7346283E1,3.9640114E1,4.446768E1,1.0233392E2,1.0296002E2,6.155209E2,2.846184E2,1.509043E2,6.3421454E2,2.2174568E1,1.4196636E1,1.3964326E2,6.797003E1,2.9501984E2,3.0359943E2,5.758949E2,3.2696622E2,0E0,0E0,0E0,0E0,0E0,0E0,0E0,0E0,0E0,0E0,0E0,0E0,0E0,0E0,0E0,0E0,0E0,0E0,0E0,0E0,0E0,0E0,0E0,0E0,0E0,0E0,0E0,0E0,0E0,0E0,0E0,0E0,0E0,0E0,0E0,0E0,0E0,0E0,0E0,0E0,0E0,0E0,0E0,0E0,0E0,0E0,0E0,0E0,0E0,0E0,0E0,0E0,0E0,0E0],"parents":[2147483647,0,0,1,1,2,2,3,3,4,4,5,5,6,6,7,7,8,8,9,9,10,10,11,11,12,12,13,13,14,14,15,15,16,16,17,17,18,18,19,19,20,20,21,21,22,22,23,23,24,24,25,25,26,26,27,27,28,28,29,29,30,30,33,33,34,34,35,35,36,36,37,37,38,38,39,39,41,41,42,42,43,43,44,44,45,45,46,46,47,47,48,48,49,49,50,50,51,51,52,52,53,53,54,54,55,55,56,56,57,57,58,58],"right_children":[2,4,6,8,10,12,14,16,18,20,22,24,26,28,30,32,34,36,38,40,42,44,46,48,50,52,54,56,58,60,62,-1,-1,64,66,68,70,72,74,76,-1,78,80,82,84,86,88,90,92,94,96,98,100,102,104,106,108,110,112,-1,-1,-1,-1,-1,-1,-1,-1,-1,-1,-1,-1,-1,-1,-1,-1,-1,-1,-1,-1,-1,-1,-1,-1,-1,-1,-1,-1,-1,-1,-1,-1,-1,-1,-1,-1,-1,-1,-1,-1,-1,-1,-1,-1,-1,-1,-1,-1,-1,-1,-1,-1,-1,-1],"split_conditions":[-1.6512679E2,-1.1236459E3,1.449396E2,-1.5071124E3,-9.5583814E-1,2.7579253E0,1.9514829E0,-1.6364208E3,-1.4357698E3,-1.8727432E2,-1.7117164E0,7.72183E1,8.276784E1,6.1403227E-1,1.7935078E2,-1.6676332E3,-1.524948E3,-1.4625232E3,1.1130866E0,0E0,-1.7531981E2,1.2831951E0,-8.498456E-1,6.880256E1,7.848546E-1,-4.5924467E-1,2.8711476E0,-1.6933473E0,7.848546E-1,1.7604246E0,1.9863821E0,3.225586E-1,2.3929028E-1,-1.5338658E3,-1.5204891E3,-1.4848179E3,-1.4580643E3,-1.1459404E3,-1.2395776E3,4.9821556E-2,3.7708923E-1,-1.7786806E2,-1.6716539E2,-4.5035016E2,-1.0790568E3,3.3469284E-1,-7.981453E2,2.151349E0,1.4603796E0,1.0346491E2,8.276784E1,2.4884746E0,3.926534E-1,1.1595081E0,6.734901E-1,-1.9033124E0,2.076818E2,9.2537427E2,3.745917E2,4.388054E0,1.0213623E0,2.5123315E0,-3.797928E-1,1.765787E-1,7.415666E-2,3.8120535E-1,1.7265055E-1,1.4154512E-1,2.7464295E-2,2.2323057E-1,1.2574266E-1,1.0735876E-1,2.436366E-1,9.508021E-2,3.241844E-2,3.7947693E-1,9.8632E-1,2.667773E-1,4.9358866E-1,8.8997416E-2,3.3929208E-1,-3.5357535E-1,4.0272862E-1,-5.1387407E-2,1.2350749E0,1.7099396E0,-1.1070263E-1,3.6876924E-2,-2.7717778E-1,-2.558564E-1,-1.5740638E0,6.60451E-1,2.0521967E0,-3.7567773E0,-1.5465269E0,-1.8681861E0,-3.404801E-1,-1.7659898E0,-2.9070282E-1,8.410141E-1,-2.8700257E-2,1.2759528E0,-1.4860657E0,3.9468637E0,5.289505E-1,3.2420003E-1,-1.267823E0,-3.3273044E-1,4.523884E-1,-2.8173008E0,4.7660828E-1,-6.597843E-1,3.7574506E-1],"split_indices":[11,11,11,11,10,10,10,11,11,11,8,11,11,8,11,11,11,11,7,9,11,4,4,11,10,3,6,8,10,6,1,0,0,11,11,11,11,11,11,2,0,11,11,11,11,3,11,10,10,11,11,7,9,8,3,8,11,11,11,0,0,0,0,0,0,0,0,0,0,0,0,0,0,0,0,0,0,0,0,0,0,0,0,0,0,0,0,0,0,0,0,0,0,0,0,0,0,0,0,0,0,0,0,0,0,0,0,0,0,0,0,0,0],"split_type":[0,0,0,0,0,0,0,0,0,0,0,0,0,0,0,0,0,0,0,0,0,0,0,0,0,0,0,0,0,0,0,0,0,0,0,0,0,0,0,0,0,0,0,0,0,0,0,0,0,0,0,0,0,0,0,0,0,0,0,0,0,0,0,0,0,0,0,0,0,0,0,0,0,0,0,0,0,0,0,0,0,0,0,0,0,0,0,0,0,0,0,0,0,0,0,0,0,0,0,0,0,0,0,0,0,0,0,0,0,0,0,0,0],"sum_hessian":[4.232E3,2.297E3,1.935E3,1.681E3,6.16E2,1.356E3,5.79E2,7.02E2,9.79E2,1.82E2,4.34E2,1.322E3,3.4E1,5.68E2,1.1E1,9.7E1,6.05E2,3.96E2,5.83E2,1.5E1,1.67E2,3.6E1,3.98E2,1.08E3,2.42E2,1.4E1,2E1,4.41E2,1.27E2,6E0,5E0,1.6E1,8.1E1,5.41E2,6.4E1,2.04E2,1.92E2,4.35E2,1.48E2,1.1E1,4E0,5.7E1,1.1E2,2.3E1,1.3E1,1E1,3.88E2,1.017E3,6.3E1,1.5E1,2.27E2,4E0,1E1,1.6E1,4E0,4.1E1,4E2,1.8E1,1.09E2,5E0,1E0,4E0,1E0,4.73E2,6.8E1,1.8E1,4.6E1,1.57E2,4.7E1,6.2E1,1.3E2,4.18E2,1.7E1,1.01E2,4.7E1,3E0,8E0,3.5E1,2.2E1,7.2E1,3.8E1,1.1E1,1.2E1,3E0,1E1,4E0,6E0,1.58E2,2.3E2,9.85E2,3.2E1,4.4E1,1.9E1,7E0,8E0,2.7E1,2E2,2E0,2E0,8E0,2E0,1.5E1,1E0,3E0,1E0,1.8E1,2.3E1,5E1,3.5E2,1E1,8E0,6E1,4.9E1],"tree_param":{"num_deleted":"0","num_feature":"12","num_nodes":"113","size_leaf_vector":"1"}},{"base_weights":[6.421441E-3,2.5037172E-1,-3.817531E-1,5.934382E-1,1.9101879E-1,-1.5943615E0,9.3295105E-2,4.2525548E-1,2.1091695E0,3.1089425E-1,-5.31494E-1,-1.456333E0,-6.626062E0,-3.3473387E-1,8.8976437E-1,5.491723E-1,-1.1878028E0,9.41096E-1,5.7683954E0,2.8318286E-1,3.368571E0,-2.9233165E0,-2.6107362E-1,4.712664E0,-1.5505241E0,-1.0859584E1,1.4727852E0,-8.470884E-1,9.383584E-1,5.7038003E-1,9.283486E0,1.8997955E0,4.7699264E-1,-1.6770499E0,-5.180308E-1,-3.6334076E0,1.5839448E0,4.1367722E-1,8.376808E0,3.1700203E-1,-2.3552392E0,5.542872E0,-2.9583251E0,-2.405793E0,-5.9445324E0,4.5766063E0,-4.7198996E-1,8.407257E0,-1.6009521E-1,-1.8855039E0,1.1825025E-1,-7.1162796E-1,-3.519964E0,5.8896446E-1,1.4742814E-1,-4.5340548E0,-5.068738E-1,-1.9340761E0,1.40208E0,1.7135874E0,-8.1733996E-1,1.2489115E0,1.0423504E1,5.990021E-1,6.699371E-2,1.1037151E-1,3.263845E-1,-2.6352015E-1,-6.498711E-1,-7.192383E-2,-3.818909E-1,2.1722718E-1,-1.5981812E0,7.0821786E-1,-1.668005E-1,-2.0676728E-1,3.0331576E-1,5.4867554E-2,2.993704E0,1.212024E-1,6.676608E-2,-1.9837345E0,1.919748E-1,2.230948E-1,2.2779698E0,-1.282029E0,3.4531403E-1,-3.2819366E-1,-8.5603124E-1,-2.2518754E0,-1.8890649E-1,3.448763E-1,1.6773642E0,-9.133948E-2,-5.630368E-1,7.8024447E-1,2.84274E0,-6.277832E-1,8.456177E-1,-2.8873667E-1,-7.561345E-1,-7.703E-1,3.226184E-1,6.778132E-1,-1.5181677E0,7.0843214E-1,-2.4061415E-1,2.7552864E-1,-1.2135727E0,4.5505938E-1,-3.0438287E0,-1.6133748E0,6.349232E-1,-3.450375E-1,2.7075338E0,-1.7866516E-2,5.798767E-1,3.5034165E0,1.4043756E0],"categories":[],"categories_nodes":[],"categories_segments":[],"categories_sizes":[],"default_left":[0,0,0,0,0,0,0,0,0,0,0,0,0,0,0,0,0,0,0,0,0,0,0,0,0,0,0,0,0,0,0,0,0,0,0,0,0,0,0,0,0,0,0,0,0,0,0,0,0,0,0,0,0,0,0,0,0,0,0,0,0,0,0,0,0,0,0,0,0,0,0,0,0,0,0,0,0,0,0,0,0,0,0,0,0,0,0,0,0,0,0,0,0,0,0,0,0,0,0,0,0,0,0,0,0,0,0,0,0,0,0,0,0,0,0,0,0,0,0],"id":16,"left_children":[1,3,5,7,9,11,13,15,17,19,21,23,25,27,29,31,33,35,37,39,41,43,45,47,49,51,53,55,57,59,61,63,65,67,69,71,73,75,77,79,81,83,85,87,89,91,93,95,97,99,101,-1,-1,-1,-1,103,105,107,109,111,113,115,117,-1,-1,-1,-1,-1,-1,-1,-1,-1,-1,-1,-1,-1,-1,-1,-1,-1,-1,-1,-1,-1,-1,-1,-1,-1,-1,-1,-1,-1,-1,-1,-1,-1,-1,-1,-1,-1,-1,-1,-1,-1,-1,-1,-1,-1,-1,-1,-1,-1,-1,-1,-1,-1,-1,-1,-1],"loss_changes":[4.0094073E2,5.282785E1,9.414102E2,9.673735E1,1.922697E2,3.0982837E2,4.0086932E2,6.98125E1,1.5699268E2,1.60292E2,2.0362485E2,2.6820496E2,4.274336E2,4.9978497E2,1.0965232E3,3.0484787E1,7.3233376E0,9.397655E1,1.2224054E2,1.6912224E2,2.5025941E2,3.57323E1,2.9295868E2,1.2736598E2,2.4786255E2,3.1487E1,1.441658E0,6.825823E2,2.9575397E2,6.312219E2,1.2437549E2,2.152748E0,2.0060585E1,3.566822E0,2.2158654E0,3.3381447E1,4.619387E1,3.3322258E0,7.6944916E1,1.5227646E1,3.1025543E2,1.22275055E2,3.194019E1,1.3907959E1,2.8474564E1,3.5297348E1,6.3911495E1,1.7294312E-1,2.8924963E1,2.1383936E2,1.9557202E2,0E0,0E0,0E0,0E0,1.7596521E2,4.2606567E2,1.904007E2,2.6724506E2,6.3412585E2,5.999557E2,2.8001313E0,3.89834E1,0E0,0E0,0E0,0E0,0E0,0E0,0E0,0E0,0E0,0E0,0E0,0E0,0E0,0E0,0E0,0E0,0E0,0E0,0E0,0E0,0E0,0E0,0E0,0E0,0E0,0E0,0E0,0E0,0E0,0E0,0E0,0E0,0E0,0E0,0E0,0E0,0E0,0E0,0E0,0E0,0E0,0E0,0E0,0E0,0E0,0E0,0E0,0E0,0E0,0E0,0E0,0E0,0E0,0E0,0E0,0E0],"parents":[2147483647,0,0,1,1,2,2,3,3,4,4,5,5,6,6,7,7,8,8,9,9,10,10,11,11,12,12,13,13,14,14,15,15,16,16,17,17,18,18,19,19,20,20,21,21,22,22,23,23,24,24,25,25,26,26,27,27,28,28,29,29,30,30,31,31,32,32,33,33,34,34,35,35,36,36,37,37,38,38,39,39,40,40,41,41,42,42,43,43,44,44,45,45,46,46,47,47,48,48,49,49,50,50,55,55,56,56,57,57,58,58,59,59,60,60,61,61,62,62],"right_children":[2,4,6,8,10,12,14,16,18,20,22,24,26,28,30,32,34,36,38,40,42,44,46,48,50,52,54,56,58,60,62,64,66,68,70,72,74,76,78,80,82,84,86,88,90,92,94,96,98,100,102,-1,-1,-1,-1,104,106,108,110,112,114,116,118,-1,-1,-1,-1,-1,-1,-1,-1,-1,-1,-1,-1,-1,-1,-1,-1,-1,-1,-1,-1,-1,-1,-1,-1,-1,-1,-1,-1,-1,-1,-1,-1,-1,-1,-1,-1,-1,-1,-1,-1,-1,-1,-1,-1,-1,-1,-1,-1,-1,-1,-1,-1,-1,-1,-1,-1],"split_conditions":[-9.809607E1,-9.5583814E-1,3.2625374E1,-1.4321182E2,-5.127749E2,2.151349E0,1.1522042E0,-1.4932762E2,1.21798165E-1,-6.2870667E2,-4.5035016E2,-1.9621286E0,2.6289105E0,4.5358722E2,3.032409E2,-1.8727432E2,-3.831948E-2,-7.165589E-1,-1.4224936E0,-7.2680273E2,2.075147E-2,9.832594E-1,-4.0130212E2,4.9821556E-2,1.4603796E0,-9.546208E-1,-7.643729E-1,7.848546E-1,-1.4375718E0,2.810896E-1,-1.0926514E0,6.293844E-1,-1.5606194E2,-1.4626971E2,1.4928018E-1,4.9821556E-2,1.9863821E0,1.9863821E0,-1.4168286E2,-1.4580643E3,-3.831948E-2,-1.3973484E0,-8.789163E-2,-9.7549367E-1,-3.831948E-2,-6.5684074E-1,1.2783207E0,-1.2442334E0,-1.0662118E-1,-3.1212387E1,8.91885E0,-7.1162796E-1,-3.519964E0,5.8896446E-1,1.4742814E-1,3.9969604E1,3.9969604E1,5.246925E-1,1.8389088E0,1.4928018E-1,1.2831951E0,1.8760989E0,-3.9114423E-2,5.990021E-1,6.699371E-2,1.1037151E-1,3.263845E-1,-2.6352015E-1,-6.498711E-1,-7.192383E-2,-3.818909E-1,2.1722718E-1,-1.5981812E0,7.0821786E-1,-1.668005E-1,-2.0676728E-1,3.0331576E-1,5.4867554E-2,2.993704E0,1.212024E-1,6.676608E-2,-1.9837345E0,1.919748E-1,2.230948E-1,2.2779698E0,-1.282029E0,3.4531403E-1,-3.2819366E-1,-8.5603124E-1,-2.2518754E0,-1.8890649E-1,3.448763E-1,1.6773642E0,-9.133948E-2,-5.630368E-1,7.8024447E-1,2.84274E0,-6.277832E-1,8.456177E-1,-2.8873667E-1,-7.561345E-1,-7.703E-1,3.226184E-1,6.778132E-1,-1.5181677E0,7.0843214E-1,-2.4061415E-1,2.7552864E-1,-1.2135727E0,4.5505938E-1,-3.0438287E0,-1.6133748E0,6.349232E-1,-3.450375E-1,2.7075338E0,-1.7866516E-2,5.798767E-1,3.5034165E0,1.4043756E0],"split_indices":[11,10,11,11,11,10,10,11,9,11,11,10,10,11,11,11,3,6,8,11,9,2,11,2,10,3,8,10,8,9,9,9,11,11,6,2,1,1,11,11,3,9,4,8,3,9,3,8,8,11,11,0,0,0,0,11,11,7,4,6,4,2,8,0,0,0,0,0,0,0,0,0,0,0,0,0,0,0,0,0,0,0,0,0,0,0,0,0,0,0,0,0,0,0,0,0,0,0,0,0,0,0,0,0,0,0,0,0,0,0,0,0,0,0,0,0,0,0,0],"split_type":[0,0,0,0,0,0,0,0,0,0,0,0,0,0,0,0,0,0,0,0,0,0,0,0,0,0,0,0,0,0,0,0,0,0,0,0,0,0,0,0,0,0,0,0,0,0,0,0,0,0,0,0,0,0,0,0,0,0,0,0,0,0,0,0,0,0,0,0,0,0,0,0,0,0,0,0,0,0,0,0,0,0,0,0,0,0,0,0,0,0,0,0,0,0,0,0,0,0,0,0,0,0,0,0,0,0,0,0,0,0,0,0,0,0,0,0,0,0,0],"sum_hessian":[4.232E3,2.599E3,1.633E3,3.82E2,2.217E3,4.59E2,1.174E3,3.45E2,3.7E1,1.902E3,3.15E2,4.48E2,1.1E1,7.64E2,4.1E2,3.21E2,2.4E1,2.9E1,8E0,1.886E3,1.6E1,3.1E1,2.84E2,6E0,4.42E2,7E0,4E0,5.45E2,2.19E2,3.96E2,1.4E1,1.5E1,3.06E2,1.3E1,1.1E1,3E0,2.6E1,3E0,5E0,1.863E3,2.3E1,1.2E1,4E0,2.8E1,3E0,1.1E1,2.73E2,3E0,3E0,3.68E2,7.4E1,1E0,6E0,2E0,2E0,4.5E1,5E2,3E1,1.89E2,2.17E2,1.79E2,2E0,1.2E1,1.4E1,1E0,2.61E2,4.5E1,6E0,7E0,9E0,2E0,1E0,2E0,1.9E1,7E0,1E0,2E0,1E0,4E0,9.68E2,8.95E2,9E0,1.4E1,4E0,8E0,3E0,1E0,8E0,2E1,2E0,1E0,3E0,8E0,2.45E2,2.8E1,1E0,2E0,2E0,1E0,1.51E2,2.17E2,1.9E1,5.5E1,3E0,4.2E1,4.6E1,4.54E2,1.3E1,1.7E1,1.88E2,1E0,1.1E1,2.06E2,1.74E2,5E0,1E0,1E0,9E0,3E0],"tree_param":{"num_deleted":"0","num_feature":"12","num_nodes":"119","size_leaf_vector":"1"}},{"base_weights":[4.8566973E-3,-1.2385637E-2,3.8296766E0,1.7752165E-1,-3.1156614E-1,-1.4696426E0,4.9151516E0,1.9261418E-1,-7.3872614E-1,-1.3272271E0,-3.6331665E-2,-7.22818E-1,2.0244141E-1,2.2760773E-1,5.9793844E0,1.7344028E-1,7.372768E-1,-2.16965E0,3.210881E-1,-7.444424E-1,-3.1569116E0,-1.6129401E0,1.9333096E-1,1.6146241E-1,-5.532837E-2,7.950981E0,2.3540242E0,2.0843075E-1,-6.188776E-1,-3.4892845E0,9.320836E-1,-4.2997465E0,4.3819597E-1,2.0348053E0,-2.0908146E-1,3.8475516E0,-8.6520976E-1,-4.448086E0,-1.1272995E0,-3.088269E0,5.152929E-1,5.8834165E-2,3.843448E0,-1.185608E-3,-2.371216E-2,9.1915286E-1,2.7208161E0,3.7329865E-1,1.2630951E0,1.7074898E-1,4.9737487E-2,-5.7576907E-1,-4.8246372E-2,-3.1253204E-1,-1.6247727E0,6.7021966E-1,7.933451E-2,-1.7356323E0,-1.8745337E-1,-3.2562286E-1,5.622487E-1,1.982361E-1,7.6698536E-1,4.256586E-1,-3.0243564E-1,2.0372477E0,-1.7282868E-2,-3.2719782E-1,1.9963346E-1,-7.66756E-1,-1.5284967E0,-1.809874E0,1.1039024E-1,-1.3063745E0,-7.5533286E-2,-1.7246899E-1,8.4627354E-1,-9.45211E-2,1.6400596E-1,7.071253E-1,1.3922949E0,6.6992193E-1,-7.8090364E-1],"categories":[],"categories_nodes":[],"categories_segments":[],"categories_sizes":[],"default_left":[0,0,0,0,0,0,0,0,0,0,0,0,0,0,0,0,0,0,0,0,0,0,0,0,0,0,0,0,0,0,0,0,0,0,0,0,0,0,0,0,0,0,0,0,0,0,0,0,0,0,0,0,0,0,0,0,0,0,0,0,0,0,0,0,0,0,0,0,0,0,0,0,0,0,0,0,0,0,0,0,0,0,0],"id":17,"left_children":[1,3,5,7,9,11,13,15,17,19,21,-1,-1,23,25,27,29,31,33,35,37,39,41,-1,43,45,47,49,51,53,55,57,59,61,63,65,67,69,71,73,75,77,79,-1,-1,-1,-1,81,-1,-1,-1,-1,-1,-1,-1,-1,-1,-1,-1,-1,-1,-1,-1,-1,-1,-1,-1,-1,-1,-1,-1,-1,-1,-1,-1,-1,-1,-1,-1,-1,-1,-1,-1],"loss_changes":[2.7920877E2,2.395371E2,1.16516815E2,3.5806015E1,4.5756683E2,9.686854E0,7.8457275E1,2.637725E1,6.439021E1,3.697928E2,4.6704324E2,0E0,0E0,3.812983E-1,7.420392E1,6.813493E1,7.406153E1,1.0187347E2,2.3139458E1,1.5084271E2,2.1511462E2,5.1652576E2,5.5255994E2,0E0,3.3423612E-3,1.593927E1,2.0489136E1,3.605175E1,6.163736E1,1.3219585E1,7.155687E1,5.0982803E1,2.172485E1,2.6124992E0,2.744613E1,8.0848915E1,9.0448E1,4.9406555E1,2.5161679E2,3.4731653E2,1.7254391E2,1.9845212E2,3.6477905E1,0E0,0E0,0E0,0E0,2.7953781E1,0E0,0E0,0E0,0E0,0E0,0E0,0E0,0E0,0E0,0E0,0E0,0E0,0E0,0E0,0E0,0E0,0E0,0E0,0E0,0E0,0E0,0E0,0E0,0E0,0E0,0E0,0E0,0E0,0E0,0E0,0E0,0E0,0E0,0E0,0E0],"parents":[2147483647,0,0,1,1,2,2,3,3,4,4,5,5,6,6,7,7,8,8,9,9,10,10,13,13,14,14,15,15,16,16,17,17,18,18,19,19,20,20,21,21,22,22,24,24,25,25,26,26,27,27,28,28,29,29,30,30,31,31,32,32,33,33,34,34,35,35,36,36,37,37,38,38,39,39,40,40,41,41,42,42,47,47],"right_children":[2,4,6,8,10,12,14,16,18,20,22,-1,-1,24,26,28,30,32,34,36,38,40,42,-1,44,46,48,50,52,54,56,58,60,62,64,66,68,70,72,74,76,78,80,-1,-1,-1,-1,82,-1,-1,-1,-1,-1,-1,-1,-1,-1,-1,-1,-1,-1,-1,-1,-1,-1,-1,-1,-1,-1,-1,-1,-1,-1,-1,-1,-1,-1,-1,-1,-1,-1,-1,-1],"split_conditions":[1.0558757E3,-1.1147281E2,-4.5924467E-1,1.8867793E0,1.4477985E1,1.9863821E0,-1.1591747E0,-1.4321182E2,-8.271736E-1,-6.625458E0,7.848546E-1,-7.22818E-1,2.0244141E-1,-2.1574748E0,6.734901E-1,-1.5901099E2,-7.165589E-1,2.0188158E0,-7.165589E-1,-1.9621286E0,1.4603796E0,9.2537427E2,4.7142493E2,1.6146241E-1,1.9863821E0,-7.643729E-1,1.2783207E0,-9.5583814E-1,-1.5606194E2,7.941578E-1,-9.5583814E-1,1.4928018E-1,-1.0077142E3,-9.5583814E-1,2.0188158E0,4.9821556E-2,-2.4463228E1,1.4928018E-1,6.0753126E0,7.548845E-1,-8.789163E-2,1.1522042E0,4.7397318E2,-1.185608E-3,-2.371216E-2,9.1915286E-1,2.7208161E0,-5.8784198E-2,1.2630951E0,1.7074898E-1,4.9737487E-2,-5.7576907E-1,-4.8246372E-2,-3.1253204E-1,-1.6247727E0,6.7021966E-1,7.933451E-2,